<?xml version="1.0"?>
<opencv_storage>
<stage14>
  <maxWeakCount>19</maxWeakCount>
  <stageThreshold>-8.7762802839279175e-01</stageThreshold>
  <weakClassifiers>
    <_>
      <internalNodes>
        0 -1 1641 1.4558297395706177e-01</internalNodes>
      <leafValues>
        -2.3852182924747467e-01 5.6862747669219971e-01</leafValues></_>
    <_>
      <internalNodes>
        0 -1 37948 -3.5445578396320343e-03</internalNodes>
      <leafValues>
        3.0681389570236206e-01 -2.6453065872192383e-01</leafValues></_>
    <_>
      <internalNodes>
        0 -1 1128 3.2327007502317429e-03</internalNodes>
      <leafValues>
        -1.5954123437404633e-01 3.5263672471046448e-01</leafValues></_>
    <_>
      <internalNodes>
        0 -1 3423 -1.9023347645998001e-02</internalNodes>
      <leafValues>
        6.3227665424346924e-01 -1.3355942070484161e-01</leafValues></_>
    <_>
      <internalNodes>
        0 -1 76379 -3.6509736673906446e-05</internalNodes>
      <leafValues>
        1.5345527231693268e-01 -3.9674821496009827e-01</leafValues></_>
    <_>
      <internalNodes>
        0 -1 73549 2.0183857530355453e-02</internalNodes>
      <leafValues>
        -2.7883985638618469e-01 2.3466429114341736e-01</leafValues></_>
    <_>
      <internalNodes>
        0 -1 25448 -1.5444721793755889e-04</internalNodes>
      <leafValues>
        -2.3081000149250031e-01 2.6027145981788635e-01</leafValues></_>
    <_>
      <internalNodes>
        0 -1 49313 4.3196592014282942e-04</internalNodes>
      <leafValues>
        -1.7494700849056244e-01 3.6223900318145752e-01</leafValues></_>
    <_>
      <internalNodes>
        0 -1 17326 -2.3587623145431280e-03</internalNodes>
      <leafValues>
        2.3410677909851074e-01 -2.3555169999599457e-01</leafValues></_>
    <_>
      <internalNodes>
        0 -1 151704 8.2513820379972458e-03</internalNodes>
      <leafValues>
        -1.6784086823463440e-01 3.7283989787101746e-01</leafValues></_>
    <_>
      <internalNodes>
        0 -1 13395 9.2536822194233537e-05</internalNodes>
      <leafValues>
        2.0537050068378448e-01 -3.2596045732498169e-01</leafValues></_>
    <_>
      <internalNodes>
        0 -1 106453 2.6317709125578403e-03</internalNodes>
      <leafValues>
        5.9657108038663864e-02 -9.0286701917648315e-01</leafValues></_>
    <_>
      <internalNodes>
        0 -1 157506 -4.0188594721257687e-04</internalNodes>
      <leafValues>
        3.4372296929359436e-01 -1.8160304427146912e-01</leafValues></_>
    <_>
      <internalNodes>
        0 -1 49161 -3.5916494671255350e-03</internalNodes>
      <leafValues>
        4.1135430335998535e-01 -1.5535596013069153e-01</leafValues></_>
    <_>
      <internalNodes>
        0 -1 81 -2.9730101232416928e-04</internalNodes>
      <leafValues>
        -4.5393592119216919e-01 1.3725692033767700e-01</leafValues></_>
    <_>
      <internalNodes>
        0 -1 146554 1.9199769943952560e-02</internalNodes>
      <leafValues>
        8.3636075258255005e-02 -7.0797693729400635e-01</leafValues></_>
    <_>
      <internalNodes>
        0 -1 808 2.9166307300329208e-02</internalNodes>
      <leafValues>
        8.7084867060184479e-02 -6.3053631782531738e-01</leafValues></_>
    <_>
      <internalNodes>
        0 -1 2508 5.4726179689168930e-02</internalNodes>
      <leafValues>
        -1.8900924921035767e-01 3.0008256435394287e-01</leafValues></_>
    <_>
      <internalNodes>
        0 -1 98653 -5.8356112276669592e-05</internalNodes>
      <leafValues>
        3.3056604862213135e-01 -1.7594492435455322e-01</leafValues></_></weakClassifiers></stage14>
</opencv_storage>
