<?xml version="1.0"?>
<opencv_storage>
<stage7>
  <maxWeakCount>16</maxWeakCount>
  <stageThreshold>-9.9554729461669922e-01</stageThreshold>
  <weakClassifiers>
    <_>
      <internalNodes>
        0 -1 1631 3.5992067307233810e-02</internalNodes>
      <leafValues>
        -2.9914531111717224e-01 6.1504423618316650e-01</leafValues></_>
    <_>
      <internalNodes>
        0 -1 155060 -7.2413403540849686e-03</internalNodes>
      <leafValues>
        5.2770644426345825e-01 -1.7872515320777893e-01</leafValues></_>
    <_>
      <internalNodes>
        0 -1 159058 1.4127689646556973e-03</internalNodes>
      <leafValues>
        1.3800415396690369e-01 -6.6858577728271484e-01</leafValues></_>
    <_>
      <internalNodes>
        0 -1 4198 2.3710649460554123e-02</internalNodes>
      <leafValues>
        -2.0075510442256927e-01 3.7404263019561768e-01</leafValues></_>
    <_>
      <internalNodes>
        0 -1 138969 2.8630450367927551e-02</internalNodes>
      <leafValues>
        -2.4111294746398926e-01 5.3209632635116577e-01</leafValues></_>
    <_>
      <internalNodes>
        0 -1 36392 -5.4573953093495220e-05</internalNodes>
      <leafValues>
        2.3274563252925873e-01 -3.7348195910453796e-01</leafValues></_>
    <_>
      <internalNodes>
        0 -1 25489 -1.0646343231201172e-02</internalNodes>
      <leafValues>
        5.5897194147109985e-01 -1.7026254534721375e-01</leafValues></_>
    <_>
      <internalNodes>
        0 -1 12581 6.8692187778651714e-03</internalNodes>
      <leafValues>
        -1.1705026030540466e-01 5.1218092441558838e-01</leafValues></_>
    <_>
      <internalNodes>
        0 -1 59801 -1.5595306642353535e-02</internalNodes>
      <leafValues>
        3.6436662077903748e-01 -1.9102132320404053e-01</leafValues></_>
    <_>
      <internalNodes>
        0 -1 27826 4.2541241273283958e-03</internalNodes>
      <leafValues>
        -1.7104899883270264e-01 5.0309723615646362e-01</leafValues></_>
    <_>
      <internalNodes>
        0 -1 103604 -3.2950498280115426e-05</internalNodes>
      <leafValues>
        2.3185519874095917e-01 -3.2638064026832581e-01</leafValues></_>
    <_>
      <internalNodes>
        0 -1 152321 -1.1286891065537930e-02</internalNodes>
      <leafValues>
        5.4466962814331055e-01 -1.4347557723522186e-01</leafValues></_>
    <_>
      <internalNodes>
        0 -1 140021 1.8375744111835957e-03</internalNodes>
      <leafValues>
        1.2188969552516937e-01 -6.7635118961334229e-01</leafValues></_>
    <_>
      <internalNodes>
        0 -1 156235 -1.5655127353966236e-03</internalNodes>
      <leafValues>
        5.5380511283874512e-01 -1.7231614887714386e-01</leafValues></_>
    <_>
      <internalNodes>
        0 -1 143613 -1.8408540636301041e-02</internalNodes>
      <leafValues>
        3.0149817466735840e-01 -2.3514664173126221e-01</leafValues></_>
    <_>
      <internalNodes>
        0 -1 291 -5.4159620776772499e-03</internalNodes>
      <leafValues>
        2.1332298219203949e-01 -3.2610321044921875e-01</leafValues></_></weakClassifiers></stage7>
</opencv_storage>
