<?xml version="1.0"?>
<opencv_storage>
<stage28>
  <maxWeakCount>29</maxWeakCount>
  <stageThreshold>-8.8650548458099365e-01</stageThreshold>
  <weakClassifiers>
    <_>
      <internalNodes>
        0 -1 71404 1.6741409897804260e-02</internalNodes>
      <leafValues>
        -1.7344753444194794e-01 4.6415093541145325e-01</leafValues></_>
    <_>
      <internalNodes>
        0 -1 161188 -1.6389960364904255e-04</internalNodes>
      <leafValues>
        -2.3466423153877258e-01 2.0066350698471069e-01</leafValues></_>
    <_>
      <internalNodes>
        0 -1 98914 6.6686443984508514e-02</internalNodes>
      <leafValues>
        6.0095459222793579e-02 -7.3051118850708008e-01</leafValues></_>
    <_>
      <internalNodes>
        0 -1 162173 -6.0951144405407831e-05</internalNodes>
      <leafValues>
        -3.0254232883453369e-01 1.4138171076774597e-01</leafValues></_>
    <_>
      <internalNodes>
        0 -1 50015 4.0796361863613129e-03</internalNodes>
      <leafValues>
        6.2855526804924011e-02 -4.6174225211143494e-01</leafValues></_>
    <_>
      <internalNodes>
        0 -1 1115 1.1262926273047924e-03</internalNodes>
      <leafValues>
        1.7881284654140472e-01 -2.5400975346565247e-01</leafValues></_>
    <_>
      <internalNodes>
        0 -1 154015 1.0427260771393776e-02</internalNodes>
      <leafValues>
        -1.8895778059959412e-01 2.6804763078689575e-01</leafValues></_>
    <_>
      <internalNodes>
        0 -1 2178 2.5980849750339985e-04</internalNodes>
      <leafValues>
        1.4386963844299316e-01 -2.9391330480575562e-01</leafValues></_>
    <_>
      <internalNodes>
        0 -1 161923 2.8934243600815535e-03</internalNodes>
      <leafValues>
        -8.8901735842227936e-02 5.8468353748321533e-01</leafValues></_>
    <_>
      <internalNodes>
        0 -1 128724 -1.0799242183566093e-02</internalNodes>
      <leafValues>
        -4.6878901124000549e-01 1.2679012119770050e-01</leafValues></_>
    <_>
      <internalNodes>
        0 -1 162100 -1.5844835434108973e-04</internalNodes>
      <leafValues>
        -3.8010638952255249e-01 1.1521645635366440e-01</leafValues></_>
    <_>
      <internalNodes>
        0 -1 11486 1.1191142257302999e-03</internalNodes>
      <leafValues>
        -8.2117654383182526e-02 4.4559571146965027e-01</leafValues></_>
    <_>
      <internalNodes>
        0 -1 45591 3.5631659557111561e-05</internalNodes>
      <leafValues>
        -1.9171692430973053e-01 2.0133811235427856e-01</leafValues></_>
    <_>
      <internalNodes>
        0 -1 14888 -3.2318983227014542e-02</internalNodes>
      <leafValues>
        5.6043326854705811e-01 -8.8272541761398315e-02</leafValues></_>
    <_>
      <internalNodes>
        0 -1 135055 -2.7412379859015346e-04</internalNodes>
      <leafValues>
        -3.4586352109909058e-01 1.4259363710880280e-01</leafValues></_>
    <_>
      <internalNodes>
        0 -1 75840 -8.2980301231145859e-03</internalNodes>
      <leafValues>
        -5.7333350181579590e-01 7.3180891573429108e-02</leafValues></_>
    <_>
      <internalNodes>
        0 -1 13300 -7.7183925895951688e-05</internalNodes>
      <leafValues>
        -2.2230485081672668e-01 2.0043711364269257e-01</leafValues></_>
    <_>
      <internalNodes>
        0 -1 156768 1.8140782776754349e-04</internalNodes>
      <leafValues>
        1.1663073301315308e-01 -3.7524831295013428e-01</leafValues></_>
    <_>
      <internalNodes>
        0 -1 149934 1.3258983381092548e-03</internalNodes>
      <leafValues>
        -2.4094055593013763e-01 2.1674433350563049e-01</leafValues></_>
    <_>
      <internalNodes>
        0 -1 161881 -2.0914888009428978e-03</internalNodes>
      <leafValues>
        4.6061095595359802e-01 -9.6422962844371796e-02</leafValues></_>
    <_>
      <internalNodes>
        0 -1 75409 -2.5495080626569688e-04</internalNodes>
      <leafValues>
        2.2974911332130432e-01 -1.9428651034832001e-01</leafValues></_>
    <_>
      <internalNodes>
        0 -1 114180 -4.2021416127681732e-02</internalNodes>
      <leafValues>
        -6.3622254133224487e-01 6.0628309845924377e-02</leafValues></_>
    <_>
      <internalNodes>
        0 -1 117074 -1.0441489284858108e-03</internalNodes>
      <leafValues>
        -3.4694629907608032e-01 1.1712422221899033e-01</leafValues></_>
    <_>
      <internalNodes>
        0 -1 8819 -7.6051531359553337e-03</internalNodes>
      <leafValues>
        -8.1851977109909058e-01 4.6579610556364059e-02</leafValues></_>
    <_>
      <internalNodes>
        0 -1 161148 -7.8664027387276292e-04</internalNodes>
      <leafValues>
        -1.9895528256893158e-01 1.8644130229949951e-01</leafValues></_>
    <_>
      <internalNodes>
        0 -1 114289 -1.2354975566267967e-02</internalNodes>
      <leafValues>
        1.6450120508670807e-01 -3.1381037831306458e-01</leafValues></_>
    <_>
      <internalNodes>
        0 -1 80640 3.1534634530544281e-02</internalNodes>
      <leafValues>
        6.2530778348445892e-02 -6.0142451524734497e-01</leafValues></_>
    <_>
      <internalNodes>
        0 -1 13243 2.1216967143118382e-03</internalNodes>
      <leafValues>
        -1.5005838871002197e-01 2.5640511512756348e-01</leafValues></_>
    <_>
      <internalNodes>
        0 -1 25967 2.7156681753695011e-03</internalNodes>
      <leafValues>
        6.7292779684066772e-02 -6.1965268850326538e-01</leafValues></_></weakClassifiers></stage28>
</opencv_storage>
