<?xml version="1.0"?>
<opencv_storage>
<stage21>
  <maxWeakCount>33</maxWeakCount>
  <stageThreshold>-9.3113595247268677e-01</stageThreshold>
  <weakClassifiers>
    <_>
      <internalNodes>
        0 -1 26709 3.8587762974202633e-03</internalNodes>
      <leafValues>
        -2.2068095207214355e-01 3.3497536182403564e-01</leafValues></_>
    <_>
      <internalNodes>
        0 -1 11499 3.1251192558556795e-03</internalNodes>
      <leafValues>
        -1.5061889588832855e-01 3.4072205424308777e-01</leafValues></_>
    <_>
      <internalNodes>
        0 -1 1184 3.7989069824106991e-04</internalNodes>
      <leafValues>
        2.3868998885154724e-01 -2.0530332624912262e-01</leafValues></_>
    <_>
      <internalNodes>
        0 -1 27489 2.0038375630974770e-02</internalNodes>
      <leafValues>
        4.9038473516702652e-02 -6.3582479953765869e-01</leafValues></_>
    <_>
      <internalNodes>
        0 -1 21615 3.5730036906898022e-03</internalNodes>
      <leafValues>
        7.8361488878726959e-02 -6.6704887151718140e-01</leafValues></_>
    <_>
      <internalNodes>
        0 -1 160947 -1.4094646321609616e-03</internalNodes>
      <leafValues>
        3.3388978242874146e-01 -1.3328510522842407e-01</leafValues></_>
    <_>
      <internalNodes>
        0 -1 144073 -1.3911281712353230e-03</internalNodes>
      <leafValues>
        -5.9606647491455078e-01 5.5180877447128296e-02</leafValues></_>
    <_>
      <internalNodes>
        0 -1 8877 -5.0023631192743778e-03</internalNodes>
      <leafValues>
        2.9765528440475464e-01 -1.3760080933570862e-01</leafValues></_>
    <_>
      <internalNodes>
        0 -1 148284 2.5996081531047821e-03</internalNodes>
      <leafValues>
        -7.4614465236663818e-02 4.5231980085372925e-01</leafValues></_>
    <_>
      <internalNodes>
        0 -1 148579 2.1323587745428085e-02</internalNodes>
      <leafValues>
        3.2969582825899124e-02 -6.6318094730377197e-01</leafValues></_>
    <_>
      <internalNodes>
        0 -1 128339 1.9470757106319070e-03</internalNodes>
      <leafValues>
        -1.3865138590335846e-01 3.1778693199157715e-01</leafValues></_>
    <_>
      <internalNodes>
        0 -1 24750 -5.5035431869328022e-03</internalNodes>
      <leafValues>
        -6.3011884689331055e-01 6.4205773174762726e-02</leafValues></_>
    <_>
      <internalNodes>
        0 -1 101816 -1.4639311120845377e-04</internalNodes>
      <leafValues>
        -2.7113431692123413e-01 1.3236241042613983e-01</leafValues></_>
    <_>
      <internalNodes>
        0 -1 25278 1.2134516146034002e-03</internalNodes>
      <leafValues>
        -1.5826469659805298e-01 2.6681783795356750e-01</leafValues></_>
    <_>
      <internalNodes>
        0 -1 127829 -1.5801172703504562e-03</internalNodes>
      <leafValues>
        1.6073234379291534e-01 -2.5589847564697266e-01</leafValues></_>
    <_>
      <internalNodes>
        0 -1 5103 -1.4607928693294525e-02</internalNodes>
      <leafValues>
        4.6913307905197144e-01 -1.1887854337692261e-01</leafValues></_>
    <_>
      <internalNodes>
        0 -1 112632 1.9517008215188980e-02</internalNodes>
      <leafValues>
        1.0622417926788330e-01 -4.5403188467025757e-01</leafValues></_>
    <_>
      <internalNodes>
        0 -1 20264 -1.2441502803994808e-05</internalNodes>
      <leafValues>
        1.8729038536548615e-01 -2.4204921722412109e-01</leafValues></_>
    <_>
      <internalNodes>
        0 -1 88410 -1.0203260183334351e-01</internalNodes>
      <leafValues>
        -8.9786660671234131e-01 4.6208485960960388e-02</leafValues></_>
    <_>
      <internalNodes>
        0 -1 23204 -1.7016273923218250e-03</internalNodes>
      <leafValues>
        2.5862941145896912e-01 -1.7271813750267029e-01</leafValues></_>
    <_>
      <internalNodes>
        0 -1 98534 8.1096887588500977e-03</internalNodes>
      <leafValues>
        6.9488480687141418e-02 -5.9881281852722168e-01</leafValues></_>
    <_>
      <internalNodes>
        0 -1 10602 1.4153355732560158e-02</internalNodes>
      <leafValues>
        4.2651686817407608e-02 -7.0619714260101318e-01</leafValues></_>
    <_>
      <internalNodes>
        0 -1 25608 1.4833666500635445e-04</internalNodes>
      <leafValues>
        1.0708611458539963e-01 -3.0725619196891785e-01</leafValues></_>
    <_>
      <internalNodes>
        0 -1 61980 1.3258478604257107e-02</internalNodes>
      <leafValues>
        -1.0757321864366531e-01 3.5461989045143127e-01</leafValues></_>
    <_>
      <internalNodes>
        0 -1 85939 -6.1313167680054903e-04</internalNodes>
      <leafValues>
        -3.8979294896125793e-01 1.0247890651226044e-01</leafValues></_>
    <_>
      <internalNodes>
        0 -1 1532 -8.2223102450370789e-02</internalNodes>
      <leafValues>
        6.0497730970382690e-01 -7.5190298259258270e-02</leafValues></_>
    <_>
      <internalNodes>
        0 -1 7408 5.7915394427254796e-04</internalNodes>
      <leafValues>
        -1.6930134594440460e-01 2.3664146661758423e-01</leafValues></_>
    <_>
      <internalNodes>
        0 -1 115059 -3.4133202279917896e-04</internalNodes>
      <leafValues>
        -3.0261912941932678e-01 1.2968428432941437e-01</leafValues></_>
    <_>
      <internalNodes>
        0 -1 121906 4.1551457252353430e-04</internalNodes>
      <leafValues>
        9.6331894397735596e-02 -4.3952324986457825e-01</leafValues></_>
    <_>
      <internalNodes>
        0 -1 80466 1.8232990987598896e-04</internalNodes>
      <leafValues>
        -1.4307890832424164e-01 2.9827991127967834e-01</leafValues></_>
    <_>
      <internalNodes>
        0 -1 120125 -3.6313103919383138e-05</internalNodes>
      <leafValues>
        1.3344506919384003e-01 -3.4299516677856445e-01</leafValues></_>
    <_>
      <internalNodes>
        0 -1 102205 -1.2441502803994808e-05</internalNodes>
      <leafValues>
        2.5070589780807495e-01 -1.7910796403884888e-01</leafValues></_>
    <_>
      <internalNodes>
        0 -1 159643 4.8746878746896982e-04</internalNodes>
      <leafValues>
        -1.0720657557249069e-01 4.3067145347595215e-01</leafValues></_></weakClassifiers></stage21>
</opencv_storage>
