<?xml version="1.0"?>
<opencv_storage>
<stage3>
  <maxWeakCount>11</maxWeakCount>
  <stageThreshold>-8.4033453464508057e-01</stageThreshold>
  <weakClassifiers>
    <_>
      <internalNodes>
        0 -1 157732 -3.4906066954135895e-02</internalNodes>
      <leafValues>
        7.2661870718002319e-01 -3.1615924835205078e-01</leafValues></_>
    <_>
      <internalNodes>
        0 -1 80597 -1.9687447696924210e-02</internalNodes>
      <leafValues>
        5.4680556058883667e-01 -3.1342586874961853e-01</leafValues></_>
    <_>
      <internalNodes>
        0 -1 2377 5.7940445840358734e-02</internalNodes>
      <leafValues>
        -1.7679192125797272e-01 6.5011620521545410e-01</leafValues></_>
    <_>
      <internalNodes>
        0 -1 100554 -4.6994730830192566e-02</internalNodes>
      <leafValues>
        2.3486804962158203e-01 -4.8262345790863037e-01</leafValues></_>
    <_>
      <internalNodes>
        0 -1 59934 -2.3603212088346481e-02</internalNodes>
      <leafValues>
        6.2568414211273193e-01 -1.6908001899719238e-01</leafValues></_>
    <_>
      <internalNodes>
        0 -1 89745 1.9064089283347130e-03</internalNodes>
      <leafValues>
        -1.6209125518798828e-01 5.5312520265579224e-01</leafValues></_>
    <_>
      <internalNodes>
        0 -1 100032 -1.8001161515712738e-03</internalNodes>
      <leafValues>
        -6.3633346557617188e-01 1.2988129258155823e-01</leafValues></_>
    <_>
      <internalNodes>
        0 -1 27889 2.3401668295264244e-03</internalNodes>
      <leafValues>
        -1.3135865330696106e-01 6.3075894117355347e-01</leafValues></_>
    <_>
      <internalNodes>
        0 -1 138480 -1.5799818793311715e-03</internalNodes>
      <leafValues>
        -6.6647553443908691e-01 1.3200481235980988e-01</leafValues></_>
    <_>
      <internalNodes>
        0 -1 145227 5.3327819332480431e-03</internalNodes>
      <leafValues>
        -1.6998808085918427e-01 5.1286745071411133e-01</leafValues></_>
    <_>
      <internalNodes>
        0 -1 104547 2.0098758861422539e-02</internalNodes>
      <leafValues>
        1.2657986581325531e-01 -6.9068276882171631e-01</leafValues></_></weakClassifiers></stage3>
</opencv_storage>
