<?xml version="1.0"?>
<opencv_storage>
<stage18>
  <maxWeakCount>24</maxWeakCount>
  <stageThreshold>-9.0455597639083862e-01</stageThreshold>
  <weakClassifiers>
    <_>
      <internalNodes>
        0 -1 571 3.1401753425598145e-02</internalNodes>
      <leafValues>
        -2.8888890147209167e-01 3.5281836986541748e-01</leafValues></_>
    <_>
      <internalNodes>
        0 -1 140904 4.8946626484394073e-03</internalNodes>
      <leafValues>
        -1.8881633877754211e-01 3.1072297692298889e-01</leafValues></_>
    <_>
      <internalNodes>
        0 -1 4268 -3.0924636870622635e-02</internalNodes>
      <leafValues>
        5.6617105007171631e-01 -8.7488569319248199e-02</leafValues></_>
    <_>
      <internalNodes>
        0 -1 80255 -1.9689921289682388e-02</internalNodes>
      <leafValues>
        1.9418348371982574e-01 -2.9772844910621643e-01</leafValues></_>
    <_>
      <internalNodes>
        0 -1 49170 1.1906841536983848e-03</internalNodes>
      <leafValues>
        -1.5784865617752075e-01 3.5657528042793274e-01</leafValues></_>
    <_>
      <internalNodes>
        0 -1 67724 -2.8793821911676787e-05</internalNodes>
      <leafValues>
        1.1534114927053452e-01 -3.7814798951148987e-01</leafValues></_>
    <_>
      <internalNodes>
        0 -1 159890 -1.5310093294829130e-03</internalNodes>
      <leafValues>
        4.1749373078346252e-01 -1.0995049029588699e-01</leafValues></_>
    <_>
      <internalNodes>
        0 -1 160899 2.2296546958386898e-03</internalNodes>
      <leafValues>
        -1.6625900566577911e-01 3.6319679021835327e-01</leafValues></_>
    <_>
      <internalNodes>
        0 -1 157723 -1.1429183185100555e-02</internalNodes>
      <leafValues>
        -4.6530357003211975e-01 1.4762422442436218e-01</leafValues></_>
    <_>
      <internalNodes>
        0 -1 134203 -2.5734999775886536e-01</internalNodes>
      <leafValues>
        8.3522677421569824e-01 -1.1432310193777084e-01</leafValues></_>
    <_>
      <internalNodes>
        0 -1 97131 -4.3344622099539265e-05</internalNodes>
      <leafValues>
        2.1240693330764771e-01 -3.3292344212532043e-01</leafValues></_>
    <_>
      <internalNodes>
        0 -1 5078 1.0276522487401962e-02</internalNodes>
      <leafValues>
        -2.4001531302928925e-01 2.4268403649330139e-01</leafValues></_>
    <_>
      <internalNodes>
        0 -1 159732 2.7201167540624738e-04</internalNodes>
      <leafValues>
        1.0574281960725784e-01 -5.0453323125839233e-01</leafValues></_>
    <_>
      <internalNodes>
        0 -1 139106 -6.5358099527657032e-04</internalNodes>
      <leafValues>
        3.3019599318504333e-01 -1.4904008805751801e-01</leafValues></_>
    <_>
      <internalNodes>
        0 -1 5941 -6.7125139757990837e-03</internalNodes>
      <leafValues>
        4.2433363199234009e-01 -1.4283852279186249e-01</leafValues></_>
    <_>
      <internalNodes>
        0 -1 154943 -5.9127021813765168e-05</internalNodes>
      <leafValues>
        1.7900156974792480e-01 -2.9382920265197754e-01</leafValues></_>
    <_>
      <internalNodes>
        0 -1 133736 -3.0288975685834885e-03</internalNodes>
      <leafValues>
        4.2837622761726379e-01 -1.3021139800548553e-01</leafValues></_>
    <_>
      <internalNodes>
        0 -1 98377 -6.2093711458146572e-03</internalNodes>
      <leafValues>
        -6.6189765930175781e-01 1.0040858387947083e-01</leafValues></_>
    <_>
      <internalNodes>
        0 -1 18022 7.4197869980707765e-04</internalNodes>
      <leafValues>
        -1.3973222672939301e-01 3.5878121852874756e-01</leafValues></_>
    <_>
      <internalNodes>
        0 -1 5055 -1.1681367177516222e-03</internalNodes>
      <leafValues>
        2.8116142749786377e-01 -1.7030106484889984e-01</leafValues></_>
    <_>
      <internalNodes>
        0 -1 107430 6.9729506503790617e-04</internalNodes>
      <leafValues>
        5.5279556661844254e-02 -7.6147770881652832e-01</leafValues></_>
    <_>
      <internalNodes>
        0 -1 13447 -1.7707776278257370e-02</internalNodes>
      <leafValues>
        -6.5439683198928833e-01 5.4289482533931732e-02</leafValues></_>
    <_>
      <internalNodes>
        0 -1 31640 -1.4488050341606140e-01</internalNodes>
      <leafValues>
        -8.9751344919204712e-01 3.7364836782217026e-02</leafValues></_>
    <_>
      <internalNodes>
        0 -1 9877 6.2814831733703613e-02</internalNodes>
      <leafValues>
        6.2346864491701126e-02 -5.8444231748580933e-01</leafValues></_></weakClassifiers></stage18>
</opencv_storage>
