<?xml version="1.0"?>
<opencv_storage>
<stage19>
  <maxWeakCount>23</maxWeakCount>
  <stageThreshold>-9.4924145936965942e-01</stageThreshold>
  <weakClassifiers>
    <_>
      <internalNodes>
        0 -1 128744 5.5904211476445198e-03</internalNodes>
      <leafValues>
        -2.7448275685310364e-01 3.3755275607109070e-01</leafValues></_>
    <_>
      <internalNodes>
        0 -1 8170 2.5845658965408802e-03</internalNodes>
      <leafValues>
        -1.7350892722606659e-01 3.5059380531311035e-01</leafValues></_>
    <_>
      <internalNodes>
        0 -1 155522 -9.9326260387897491e-03</internalNodes>
      <leafValues>
        5.6623780727386475e-01 -9.5973305404186249e-02</leafValues></_>
    <_>
      <internalNodes>
        0 -1 160228 6.4605013467371464e-03</internalNodes>
      <leafValues>
        -1.4429455995559692e-01 3.5427013039588928e-01</leafValues></_>
    <_>
      <internalNodes>
        0 -1 49817 -1.8257288262248039e-02</internalNodes>
      <leafValues>
        4.4675993919372559e-01 -1.3551029562950134e-01</leafValues></_>
    <_>
      <internalNodes>
        0 -1 29045 3.1388990581035614e-02</internalNodes>
      <leafValues>
        -2.0779491961002350e-01 2.9242482781410217e-01</leafValues></_>
    <_>
      <internalNodes>
        0 -1 26048 -1.1622711317613721e-03</internalNodes>
      <leafValues>
        3.6103180050849915e-01 -1.3756242394447327e-01</leafValues></_>
    <_>
      <internalNodes>
        0 -1 113173 3.3655415754765272e-03</internalNodes>
      <leafValues>
        1.5793411433696747e-01 -3.7901309132575989e-01</leafValues></_>
    <_>
      <internalNodes>
        0 -1 14120 -4.1650068014860153e-03</internalNodes>
      <leafValues>
        -3.7999230623245239e-01 9.7767047584056854e-02</leafValues></_>
    <_>
      <internalNodes>
        0 -1 815 -1.0792352259159088e-02</internalNodes>
      <leafValues>
        -3.5749623179435730e-01 1.6349138319492340e-01</leafValues></_>
    <_>
      <internalNodes>
        0 -1 2057 1.9384040497243404e-03</internalNodes>
      <leafValues>
        -2.2644664347171783e-01 2.6837295293807983e-01</leafValues></_>
    <_>
      <internalNodes>
        0 -1 107371 5.5442310869693756e-02</internalNodes>
      <leafValues>
        3.3701047301292419e-02 -8.2378709316253662e-01</leafValues></_>
    <_>
      <internalNodes>
        0 -1 37216 -1.1808532290160656e-03</internalNodes>
      <leafValues>
        2.8998407721519470e-01 -1.5409481525421143e-01</leafValues></_>
    <_>
      <internalNodes>
        0 -1 155871 -3.1939689069986343e-03</internalNodes>
      <leafValues>
        4.7118762135505676e-01 -1.1125716567039490e-01</leafValues></_>
    <_>
      <internalNodes>
        0 -1 2722 6.8509294651448727e-03</internalNodes>
      <leafValues>
        -3.1593099236488342e-01 1.5663431584835052e-01</leafValues></_>
    <_>
      <internalNodes>
        0 -1 30227 1.3784181326627731e-02</internalNodes>
      <leafValues>
        1.4074508845806122e-01 -3.5249793529510498e-01</leafValues></_>
    <_>
      <internalNodes>
        0 -1 70804 -4.0939515456557274e-03</internalNodes>
      <leafValues>
        4.9439746141433716e-01 -9.0307652950286865e-02</leafValues></_>
    <_>
      <internalNodes>
        0 -1 139221 3.8733817636966705e-03</internalNodes>
      <leafValues>
        -1.1259674280881882e-01 4.0323835611343384e-01</leafValues></_>
    <_>
      <internalNodes>
        0 -1 138001 -3.6332409945316613e-04</internalNodes>
      <leafValues>
        1.4506024122238159e-01 -3.4424203634262085e-01</leafValues></_>
    <_>
      <internalNodes>
        0 -1 26892 3.0440082773566246e-03</internalNodes>
      <leafValues>
        -1.5833617746829987e-01 3.0088648200035095e-01</leafValues></_>
    <_>
      <internalNodes>
        0 -1 26082 -4.5000374317169189e-02</internalNodes>
      <leafValues>
        6.2209367752075195e-01 -7.4282258749008179e-02</leafValues></_>
    <_>
      <internalNodes>
        0 -1 142314 1.8604942597448826e-03</internalNodes>
      <leafValues>
        -3.0118843913078308e-01 1.7841835319995880e-01</leafValues></_>
    <_>
      <internalNodes>
        0 -1 13335 2.0868298597633839e-03</internalNodes>
      <leafValues>
        -1.4331360161304474e-01 3.9329046010971069e-01</leafValues></_></weakClassifiers></stage19>
</opencv_storage>
