<?xml version="1.0"?>
<opencv_storage>
<stage16>
  <maxWeakCount>29</maxWeakCount>
  <stageThreshold>-9.1636407375335693e-01</stageThreshold>
  <weakClassifiers>
    <_>
      <internalNodes>
        0 -1 38851 1.4413163065910339e-02</internalNodes>
      <leafValues>
        -2.7118644118309021e-01 3.9964476227760315e-01</leafValues></_>
    <_>
      <internalNodes>
        0 -1 15379 1.6761648003011942e-03</internalNodes>
      <leafValues>
        -1.6267295181751251e-01 3.6678239703178406e-01</leafValues></_>
    <_>
      <internalNodes>
        0 -1 155060 -7.3482282459735870e-03</internalNodes>
      <leafValues>
        3.3507400751113892e-01 -1.5084825456142426e-01</leafValues></_>
    <_>
      <internalNodes>
        0 -1 1193 -5.4794261232018471e-03</internalNodes>
      <leafValues>
        4.9844789505004883e-01 -1.8031860888004303e-01</leafValues></_>
    <_>
      <internalNodes>
        0 -1 34238 1.0809826664626598e-02</internalNodes>
      <leafValues>
        1.3948571681976318e-01 -5.3218966722488403e-01</leafValues></_>
    <_>
      <internalNodes>
        0 -1 159561 -1.4052616897970438e-03</internalNodes>
      <leafValues>
        4.1668006777763367e-01 -1.2145138531923294e-01</leafValues></_>
    <_>
      <internalNodes>
        0 -1 114298 -7.7880732715129852e-04</internalNodes>
      <leafValues>
        -5.9611332416534424e-01 7.5626447796821594e-02</leafValues></_>
    <_>
      <internalNodes>
        0 -1 130030 1.6875495202839375e-03</internalNodes>
      <leafValues>
        -1.5990358591079712e-01 3.4032800793647766e-01</leafValues></_>
    <_>
      <internalNodes>
        0 -1 25717 -1.0095730249304324e-04</internalNodes>
      <leafValues>
        -3.1825682520866394e-01 1.9637292623519897e-01</leafValues></_>
    <_>
      <internalNodes>
        0 -1 13047 6.0396324843168259e-03</internalNodes>
      <leafValues>
        -8.3033397793769836e-02 5.1939082145690918e-01</leafValues></_>
    <_>
      <internalNodes>
        0 -1 13362 -4.1779996827244759e-03</internalNodes>
      <leafValues>
        2.4715052545070648e-01 -2.2550588846206665e-01</leafValues></_>
    <_>
      <internalNodes>
        0 -1 136489 6.5156095661222935e-04</internalNodes>
      <leafValues>
        8.1935271620750427e-02 -5.8257144689559937e-01</leafValues></_>
    <_>
      <internalNodes>
        0 -1 156862 1.0672168806195259e-02</internalNodes>
      <leafValues>
        -1.3783292472362518e-01 4.0606668591499329e-01</leafValues></_>
    <_>
      <internalNodes>
        0 -1 48837 1.6370940953493118e-02</internalNodes>
      <leafValues>
        6.1710797250270844e-02 -7.3287224769592285e-01</leafValues></_>
    <_>
      <internalNodes>
        0 -1 36957 5.3122639656066895e-04</internalNodes>
      <leafValues>
        -1.9006562232971191e-01 2.2706645727157593e-01</leafValues></_>
    <_>
      <internalNodes>
        0 -1 161595 -1.2654068414121866e-03</internalNodes>
      <leafValues>
        4.0169119834899902e-01 -1.3651417195796967e-01</leafValues></_>
    <_>
      <internalNodes>
        0 -1 161081 -5.6233833311125636e-04</internalNodes>
      <leafValues>
        2.5689303874969482e-01 -1.7635411024093628e-01</leafValues></_>
    <_>
      <internalNodes>
        0 -1 9175 -1.4732131361961365e-01</internalNodes>
      <leafValues>
        4.5507159829139709e-01 -1.2485582381486893e-01</leafValues></_>
    <_>
      <internalNodes>
        0 -1 98104 -1.5699528739787638e-04</internalNodes>
      <leafValues>
        1.6233983635902405e-01 -3.4092664718627930e-01</leafValues></_>
    <_>
      <internalNodes>
        0 -1 25749 -3.8238302804529667e-03</internalNodes>
      <leafValues>
        4.3030062317848206e-01 -1.2685492634773254e-01</leafValues></_>
    <_>
      <internalNodes>
        0 -1 116041 -3.2487110001966357e-04</internalNodes>
      <leafValues>
        -4.8660367727279663e-01 1.0749411582946777e-01</leafValues></_>
    <_>
      <internalNodes>
        0 -1 1338 9.9146887660026550e-03</internalNodes>
      <leafValues>
        -1.3018020987510681e-01 3.8096588850021362e-01</leafValues></_>
    <_>
      <internalNodes>
        0 -1 3342 -6.8138318601995707e-04</internalNodes>
      <leafValues>
        -3.5514426231384277e-01 1.5252079069614410e-01</leafValues></_>
    <_>
      <internalNodes>
        0 -1 128339 2.0370697602629662e-03</internalNodes>
      <leafValues>
        -1.5128007531166077e-01 3.4420728683471680e-01</leafValues></_>
    <_>
      <internalNodes>
        0 -1 160355 5.1163840107619762e-03</internalNodes>
      <leafValues>
        -1.8661299347877502e-01 2.7076470851898193e-01</leafValues></_>
    <_>
      <internalNodes>
        0 -1 140313 -6.7093754187226295e-03</internalNodes>
      <leafValues>
        2.3262593150138855e-01 -2.2784453630447388e-01</leafValues></_>
    <_>
      <internalNodes>
        0 -1 134055 -2.4928366765379906e-03</internalNodes>
      <leafValues>
        3.4873533248901367e-01 -1.3197445869445801e-01</leafValues></_>
    <_>
      <internalNodes>
        0 -1 134095 1.1751225590705872e-01</internalNodes>
      <leafValues>
        9.6546232700347900e-02 -4.8435875773429871e-01</leafValues></_>
    <_>
      <internalNodes>
        0 -1 161462 -9.9572893232107162e-03</internalNodes>
      <leafValues>
        -2.1708306670188904e-01 2.5029942393302917e-01</leafValues></_></weakClassifiers></stage16>
</opencv_storage>
