<?xml version="1.0"?>
<opencv_storage>
<stage13>
  <maxWeakCount>20</maxWeakCount>
  <stageThreshold>-9.8149454593658447e-01</stageThreshold>
  <weakClassifiers>
    <_>
      <internalNodes>
        0 -1 38851 1.9256189465522766e-02</internalNodes>
      <leafValues>
        -3.1420764327049255e-01 4.0899357199668884e-01</leafValues></_>
    <_>
      <internalNodes>
        0 -1 12684 2.4880882352590561e-02</internalNodes>
      <leafValues>
        -2.2455838322639465e-01 3.2562541961669922e-01</leafValues></_>
    <_>
      <internalNodes>
        0 -1 152498 3.2117180526256561e-03</internalNodes>
      <leafValues>
        -1.3642197847366333e-01 4.6623849868774414e-01</leafValues></_>
    <_>
      <internalNodes>
        0 -1 67205 -8.0065699876286089e-05</internalNodes>
      <leafValues>
        1.3569854199886322e-01 -4.1221094131469727e-01</leafValues></_>
    <_>
      <internalNodes>
        0 -1 8173 -6.6686216741800308e-03</internalNodes>
      <leafValues>
        7.1478170156478882e-01 -8.2904115319252014e-02</leafValues></_>
    <_>
      <internalNodes>
        0 -1 18008 1.5652874112129211e-01</internalNodes>
      <leafValues>
        -2.0677997171878815e-01 3.1492286920547485e-01</leafValues></_>
    <_>
      <internalNodes>
        0 -1 157693 -1.0704839602112770e-02</internalNodes>
      <leafValues>
        6.2274950742721558e-01 -8.9687436819076538e-02</leafValues></_>
    <_>
      <internalNodes>
        0 -1 5375 -7.9897725954651833e-03</internalNodes>
      <leafValues>
        2.6189202070236206e-01 -2.6531299948692322e-01</leafValues></_>
    <_>
      <internalNodes>
        0 -1 5297 -2.6161095593124628e-04</internalNodes>
      <leafValues>
        -3.6267977952957153e-01 1.7921562492847443e-01</leafValues></_>
    <_>
      <internalNodes>
        0 -1 13309 -1.5119009185582399e-04</internalNodes>
      <leafValues>
        -2.6313805580139160e-01 2.3429395258426666e-01</leafValues></_>
    <_>
      <internalNodes>
        0 -1 155067 -1.5881305560469627e-02</internalNodes>
      <leafValues>
        4.0550208091735840e-01 -1.4950756728649139e-01</leafValues></_>
    <_>
      <internalNodes>
        0 -1 151535 1.0007079690694809e-03</internalNodes>
      <leafValues>
        9.2244096100330353e-02 -5.4766976833343506e-01</leafValues></_>
    <_>
      <internalNodes>
        0 -1 160379 6.2760972650721669e-04</internalNodes>
      <leafValues>
        -2.0423462986946106e-01 2.7715566754341125e-01</leafValues></_>
    <_>
      <internalNodes>
        0 -1 159465 2.2987306583672762e-03</internalNodes>
      <leafValues>
        -1.2103071063756943e-01 4.7923856973648071e-01</leafValues></_>
    <_>
      <internalNodes>
        0 -1 121740 2.8353191912174225e-02</internalNodes>
      <leafValues>
        -8.5251778364181519e-02 7.0064425468444824e-01</leafValues></_>
    <_>
      <internalNodes>
        0 -1 2923 4.5406525023281574e-03</internalNodes>
      <leafValues>
        -3.8296866416931152e-01 1.6477367281913757e-01</leafValues></_>
    <_>
      <internalNodes>
        0 -1 24766 -6.9549372419714928e-03</internalNodes>
      <leafValues>
        4.3129506707191467e-01 -1.3084727525711060e-01</leafValues></_>
    <_>
      <internalNodes>
        0 -1 324 -2.4483953602612019e-03</internalNodes>
      <leafValues>
        4.6917968988418579e-01 -1.1766985058784485e-01</leafValues></_>
    <_>
      <internalNodes>
        0 -1 18825 -1.6359118744730949e-02</internalNodes>
      <leafValues>
        -8.1759083271026611e-01 7.9770907759666443e-02</leafValues></_>
    <_>
      <internalNodes>
        0 -1 26559 -1.4354740083217621e-01</internalNodes>
      <leafValues>
        -8.2983142137527466e-01 5.0624080002307892e-02</leafValues></_></weakClassifiers></stage13>
</opencv_storage>
