<?xml version="1.0"?>
<opencv_storage>
<stage6>
  <maxWeakCount>11</maxWeakCount>
  <stageThreshold>-1.1039575338363647e+00</stageThreshold>
  <weakClassifiers>
    <_>
      <internalNodes>
        0 -1 14391 3.2940977811813354e-01</internalNodes>
      <leafValues>
        -3.6312848329544067e-01 5.2792793512344360e-01</leafValues></_>
    <_>
      <internalNodes>
        0 -1 4222 1.7734106630086899e-02</internalNodes>
      <leafValues>
        -2.0979139208793640e-01 5.1002806425094604e-01</leafValues></_>
    <_>
      <internalNodes>
        0 -1 110698 -4.0477825677953660e-05</internalNodes>
      <leafValues>
        2.6480591297149658e-01 -4.6745631098747253e-01</leafValues></_>
    <_>
      <internalNodes>
        0 -1 115523 4.3965905206277966e-04</internalNodes>
      <leafValues>
        1.5880268812179565e-01 -5.7406961917877197e-01</leafValues></_>
    <_>
      <internalNodes>
        0 -1 5096 -1.5110109001398087e-02</internalNodes>
      <leafValues>
        6.8274360895156860e-01 -1.4609389007091522e-01</leafValues></_>
    <_>
      <internalNodes>
        0 -1 89672 -1.7883151769638062e-02</internalNodes>
      <leafValues>
        3.8134911656379700e-01 -3.0625674128532410e-01</leafValues></_>
    <_>
      <internalNodes>
        0 -1 160809 1.2329935561865568e-03</internalNodes>
      <leafValues>
        1.2084838002920151e-01 -6.7659693956375122e-01</leafValues></_>
    <_>
      <internalNodes>
        0 -1 11567 2.2776769474148750e-02</internalNodes>
      <leafValues>
        -1.8356212973594666e-01 5.1546698808670044e-01</leafValues></_>
    <_>
      <internalNodes>
        0 -1 71440 -1.6725122928619385e-01</internalNodes>
      <leafValues>
        4.3550232052803040e-01 -2.6069533824920654e-01</leafValues></_>
    <_>
      <internalNodes>
        0 -1 161620 -7.0668691769242287e-03</internalNodes>
      <leafValues>
        5.4015731811523438e-01 -1.7304478585720062e-01</leafValues></_>
    <_>
      <internalNodes>
        0 -1 155074 1.2513360939919949e-02</internalNodes>
      <leafValues>
        -1.6463594138622284e-01 7.0223987102508545e-01</leafValues></_></weakClassifiers></stage6>
</opencv_storage>
