<?xml version="1.0"?>
<opencv_storage>
<stage4>
  <maxWeakCount>12</maxWeakCount>
  <stageThreshold>-9.3989008665084839e-01</stageThreshold>
  <weakClassifiers>
    <_>
      <internalNodes>
        0 -1 134508 2.4909928441047668e-02</internalNodes>
      <leafValues>
        -3.6895674467086792e-01 6.6597938537597656e-01</leafValues></_>
    <_>
      <internalNodes>
        0 -1 13590 5.3160820156335831e-02</internalNodes>
      <leafValues>
        -2.9436233639717102e-01 5.3762131929397583e-01</leafValues></_>
    <_>
      <internalNodes>
        0 -1 11926 -8.3475224673748016e-03</internalNodes>
      <leafValues>
        6.2299919128417969e-01 -1.5571296215057373e-01</leafValues></_>
    <_>
      <internalNodes>
        0 -1 12581 -5.1650353707373142e-03</internalNodes>
      <leafValues>
        4.6768704056739807e-01 -2.5199037790298462e-01</leafValues></_>
    <_>
      <internalNodes>
        0 -1 12842 2.7375309728085995e-03</internalNodes>
      <leafValues>
        -2.2987841069698334e-01 4.6774154901504517e-01</leafValues></_>
    <_>
      <internalNodes>
        0 -1 161623 -6.9070374593138695e-03</internalNodes>
      <leafValues>
        5.8334511518478394e-01 -1.5055979788303375e-01</leafValues></_>
    <_>
      <internalNodes>
        0 -1 112529 -2.9462901875376701e-03</internalNodes>
      <leafValues>
        -7.8783923387527466e-01 1.2285921722650528e-01</leafValues></_>
    <_>
      <internalNodes>
        0 -1 161567 4.6180495992302895e-03</internalNodes>
      <leafValues>
        -1.9242070615291595e-01 5.3540945053100586e-01</leafValues></_>
    <_>
      <internalNodes>
        0 -1 1572 1.1257287114858627e-02</internalNodes>
      <leafValues>
        -3.1029033660888672e-01 3.2547610998153687e-01</leafValues></_>
    <_>
      <internalNodes>
        0 -1 105068 -6.6883093677461147e-04</internalNodes>
      <leafValues>
        2.1778669953346252e-01 -4.0666475892066956e-01</leafValues></_>
    <_>
      <internalNodes>
        0 -1 155323 2.8181693051010370e-03</internalNodes>
      <leafValues>
        -1.5744134783744812e-01 5.2597308158874512e-01</leafValues></_>
    <_>
      <internalNodes>
        0 -1 138301 2.6457370258867741e-03</internalNodes>
      <leafValues>
        1.3345701992511749e-01 -7.5423800945281982e-01</leafValues></_></weakClassifiers></stage4>
</opencv_storage>
