<?xml version="1.0"?>
<opencv_storage>
<stage18>
  <maxWeakCount>29</maxWeakCount>
  <stageThreshold>-8.9549750089645386e-01</stageThreshold>
  <weakClassifiers>
    <_>
      <internalNodes>
        0 -1 1193 5.6775007396936417e-03</internalNodes>
      <leafValues>
        -2.5545570254325867e-01 3.8095238804817200e-01</leafValues></_>
    <_>
      <internalNodes>
        0 -1 15104 -1.7918288707733154e-02</internalNodes>
      <leafValues>
        -5.2676576375961304e-01 1.0414741933345795e-01</leafValues></_>
    <_>
      <internalNodes>
        0 -1 27391 5.6551345624029636e-03</internalNodes>
      <leafValues>
        -2.1185418963432312e-01 3.3231630921363831e-01</leafValues></_>
    <_>
      <internalNodes>
        0 -1 37639 7.1232719346880913e-04</internalNodes>
      <leafValues>
        -2.3480243980884552e-01 2.1558655798435211e-01</leafValues></_>
    <_>
      <internalNodes>
        0 -1 61292 -1.0983012616634369e-03</internalNodes>
      <leafValues>
        4.2330938577651978e-01 -1.8526564538478851e-01</leafValues></_>
    <_>
      <internalNodes>
        0 -1 20327 -8.1410510465502739e-03</internalNodes>
      <leafValues>
        -7.6832431554794312e-01 1.3724166154861450e-01</leafValues></_>
    <_>
      <internalNodes>
        0 -1 152498 3.4808218479156494e-03</internalNodes>
      <leafValues>
        -1.4103421568870544e-01 3.5703024268150330e-01</leafValues></_>
    <_>
      <internalNodes>
        0 -1 144549 -5.5631119757890701e-03</internalNodes>
      <leafValues>
        3.9511349797248840e-01 -1.2966218590736389e-01</leafValues></_>
    <_>
      <internalNodes>
        0 -1 70469 -1.4000337105244398e-03</internalNodes>
      <leafValues>
        1.8876987695693970e-01 -2.3235546052455902e-01</leafValues></_>
    <_>
      <internalNodes>
        0 -1 14616 1.8888501450419426e-02</internalNodes>
      <leafValues>
        1.4873211085796356e-01 -3.9599886536598206e-01</leafValues></_>
    <_>
      <internalNodes>
        0 -1 72907 -8.4887183038517833e-04</internalNodes>
      <leafValues>
        1.4685831964015961e-01 -2.7491194009780884e-01</leafValues></_>
    <_>
      <internalNodes>
        0 -1 129384 -1.0284368181601167e-03</internalNodes>
      <leafValues>
        -4.5681661367416382e-01 1.1602085828781128e-01</leafValues></_>
    <_>
      <internalNodes>
        0 -1 22000 1.0264706611633301e-01</internalNodes>
      <leafValues>
        7.2733923792839050e-02 -5.3626239299774170e-01</leafValues></_>
    <_>
      <internalNodes>
        0 -1 24594 4.0735844522714615e-03</internalNodes>
      <leafValues>
        -1.6846653819084167e-01 3.1458213925361633e-01</leafValues></_>
    <_>
      <internalNodes>
        0 -1 14406 -2.2293856739997864e-01</internalNodes>
      <leafValues>
        5.9939789772033691e-01 -9.4992302358150482e-02</leafValues></_>
    <_>
      <internalNodes>
        0 -1 23920 -1.6512162983417511e-04</internalNodes>
      <leafValues>
        1.3972066342830658e-01 -4.2253571748733521e-01</leafValues></_>
    <_>
      <internalNodes>
        0 -1 161509 -1.8073989078402519e-02</internalNodes>
      <leafValues>
        3.5465452075004578e-01 -1.2812602519989014e-01</leafValues></_>
    <_>
      <internalNodes>
        0 -1 47504 1.5868593007326126e-02</internalNodes>
      <leafValues>
        -5.5490698665380478e-02 6.9697737693786621e-01</leafValues></_>
    <_>
      <internalNodes>
        0 -1 80782 2.3559769615530968e-03</internalNodes>
      <leafValues>
        6.7273437976837158e-02 -6.4089101552963257e-01</leafValues></_>
    <_>
      <internalNodes>
        0 -1 148917 -2.0029838196933270e-03</internalNodes>
      <leafValues>
        2.7443879842758179e-01 -1.5706959366798401e-01</leafValues></_>
    <_>
      <internalNodes>
        0 -1 161780 2.3496928624808788e-03</internalNodes>
      <leafValues>
        8.4478974342346191e-02 -5.1728636026382446e-01</leafValues></_>
    <_>
      <internalNodes>
        0 -1 146071 2.2135707549750805e-03</internalNodes>
      <leafValues>
        -2.4511240422725677e-01 1.8893733620643616e-01</leafValues></_>
    <_>
      <internalNodes>
        0 -1 12842 -3.2991878688335419e-03</internalNodes>
      <leafValues>
        2.6667627692222595e-01 -1.5810425579547882e-01</leafValues></_>
    <_>
      <internalNodes>
        0 -1 37208 1.3188146986067295e-03</internalNodes>
      <leafValues>
        -1.0985577851533890e-01 3.8730922341346741e-01</leafValues></_>
    <_>
      <internalNodes>
        0 -1 48754 -5.4781101644039154e-03</internalNodes>
      <leafValues>
        -7.8453636169433594e-01 6.0647219419479370e-02</leafValues></_>
    <_>
      <internalNodes>
        0 -1 143728 -5.2651186706498265e-05</internalNodes>
      <leafValues>
        1.0673854500055313e-01 -3.4173566102981567e-01</leafValues></_>
    <_>
      <internalNodes>
        0 -1 135706 1.9612399861216545e-02</internalNodes>
      <leafValues>
        -1.0563567280769348e-01 3.8281750679016113e-01</leafValues></_>
    <_>
      <internalNodes>
        0 -1 40674 2.3505757562816143e-03</internalNodes>
      <leafValues>
        -9.9766425788402557e-02 4.3780747056007385e-01</leafValues></_>
    <_>
      <internalNodes>
        0 -1 25893 -2.0515176001936197e-03</internalNodes>
      <leafValues>
        3.7544065713882446e-01 -1.3216729462146759e-01</leafValues></_></weakClassifiers></stage18>
</opencv_storage>
