<?xml version="1.0"?>
<opencv_storage>
<stage15>
  <maxWeakCount>20</maxWeakCount>
  <stageThreshold>-8.9365899562835693e-01</stageThreshold>
  <weakClassifiers>
    <_>
      <internalNodes>
        0 -1 158328 -1.0458061471581459e-02</internalNodes>
      <leafValues>
        3.4387353062629700e-01 -3.0735930800437927e-01</leafValues></_>
    <_>
      <internalNodes>
        0 -1 71465 3.8555497303605080e-03</internalNodes>
      <leafValues>
        -1.8461169302463531e-01 3.8264968991279602e-01</leafValues></_>
    <_>
      <internalNodes>
        0 -1 132974 -4.0229242586065084e-05</internalNodes>
      <leafValues>
        1.4636263251304626e-01 -4.0849009156227112e-01</leafValues></_>
    <_>
      <internalNodes>
        0 -1 139169 7.3867209721356630e-04</internalNodes>
      <leafValues>
        -1.4443626999855042e-01 4.0168255567550659e-01</leafValues></_>
    <_>
      <internalNodes>
        0 -1 161673 7.2865691035985947e-03</internalNodes>
      <leafValues>
        -1.2817628681659698e-01 7.0251828432083130e-01</leafValues></_>
    <_>
      <internalNodes>
        0 -1 1268 6.9465041160583496e-03</internalNodes>
      <leafValues>
        -1.6379213333129883e-01 3.7683841586112976e-01</leafValues></_>
    <_>
      <internalNodes>
        0 -1 64274 -3.1654015765525401e-04</internalNodes>
      <leafValues>
        1.7355416715145111e-01 -3.2612475752830505e-01</leafValues></_>
    <_>
      <internalNodes>
        0 -1 24405 7.3164948844350874e-05</internalNodes>
      <leafValues>
        -3.1480866670608521e-01 2.0867377519607544e-01</leafValues></_>
    <_>
      <internalNodes>
        0 -1 151801 -1.7398318741470575e-03</internalNodes>
      <leafValues>
        3.9046019315719604e-01 -1.4696313440799713e-01</leafValues></_>
    <_>
      <internalNodes>
        0 -1 144058 -1.8916702829301357e-03</internalNodes>
      <leafValues>
        -7.7706760168075562e-01 7.0971995592117310e-02</leafValues></_>
    <_>
      <internalNodes>
        0 -1 133517 1.3200509129092097e-03</internalNodes>
      <leafValues>
        8.0257818102836609e-02 -7.7126413583755493e-01</leafValues></_>
    <_>
      <internalNodes>
        0 -1 14120 1.4203812927007675e-02</internalNodes>
      <leafValues>
        1.2492159008979797e-01 -4.2632871866226196e-01</leafValues></_>
    <_>
      <internalNodes>
        0 -1 94773 1.1839969083666801e-03</internalNodes>
      <leafValues>
        1.0784825682640076e-01 -4.4471812248229980e-01</leafValues></_>
    <_>
      <internalNodes>
        0 -1 39811 -4.1001156205311418e-04</internalNodes>
      <leafValues>
        4.6591764688491821e-01 -1.1653756350278854e-01</leafValues></_>
    <_>
      <internalNodes>
        0 -1 159561 1.2802303535863757e-03</internalNodes>
      <leafValues>
        -1.5870724618434906e-01 3.5881718993186951e-01</leafValues></_>
    <_>
      <internalNodes>
        0 -1 819 4.4176019728183746e-02</internalNodes>
      <leafValues>
        1.2402684241533279e-01 -5.4724270105361938e-01</leafValues></_>
    <_>
      <internalNodes>
        0 -1 133517 -9.0470351278781891e-04</internalNodes>
      <leafValues>
        -5.6563246250152588e-01 6.8571373820304871e-02</leafValues></_>
    <_>
      <internalNodes>
        0 -1 146994 2.4333247914910316e-02</internalNodes>
      <leafValues>
        -1.2217539548873901e-01 4.6541363000869751e-01</leafValues></_>
    <_>
      <internalNodes>
        0 -1 126603 -8.5016913712024689e-02</internalNodes>
      <leafValues>
        2.4450473487377167e-01 -3.3915126323699951e-01</leafValues></_>
    <_>
      <internalNodes>
        0 -1 35313 1.2869945168495178e-01</internalNodes>
      <leafValues>
        5.4810076951980591e-02 -8.8924992084503174e-01</leafValues></_></weakClassifiers></stage15>
</opencv_storage>
