<?xml version="1.0"?>
<opencv_storage>
<stage11>
  <maxWeakCount>19</maxWeakCount>
  <stageThreshold>-9.1684687137603760e-01</stageThreshold>
  <weakClassifiers>
    <_>
      <internalNodes>
        0 -1 159940 4.8235587775707245e-02</internalNodes>
      <leafValues>
        -3.0087390542030334e-01 5.0753766298294067e-01</leafValues></_>
    <_>
      <internalNodes>
        0 -1 50260 1.6453653573989868e-02</internalNodes>
      <leafValues>
        -1.3599258661270142e-01 5.8789604902267456e-01</leafValues></_>
    <_>
      <internalNodes>
        0 -1 130242 -3.5562399716582149e-05</internalNodes>
      <leafValues>
        1.7497357726097107e-01 -4.7268211841583252e-01</leafValues></_>
    <_>
      <internalNodes>
        0 -1 12842 -6.1040725558996201e-03</internalNodes>
      <leafValues>
        4.5328956842422485e-01 -2.1050018072128296e-01</leafValues></_>
    <_>
      <internalNodes>
        0 -1 98778 -4.7410619445145130e-03</internalNodes>
      <leafValues>
        -5.7358789443969727e-01 1.2789131700992584e-01</leafValues></_>
    <_>
      <internalNodes>
        0 -1 128339 1.5451480867341161e-03</internalNodes>
      <leafValues>
        -2.0843972265720367e-01 3.5280108451843262e-01</leafValues></_>
    <_>
      <internalNodes>
        0 -1 148057 -4.7552487812936306e-03</internalNodes>
      <leafValues>
        2.8179350495338440e-01 -2.0365531742572784e-01</leafValues></_>
    <_>
      <internalNodes>
        0 -1 37697 9.1761443763971329e-03</internalNodes>
      <leafValues>
        -1.4497441053390503e-01 4.2265260219573975e-01</leafValues></_>
    <_>
      <internalNodes>
        0 -1 148256 1.2824906036257744e-02</internalNodes>
      <leafValues>
        -8.7972044944763184e-02 7.5895553827285767e-01</leafValues></_>
    <_>
      <internalNodes>
        0 -1 68391 2.0345221273601055e-03</internalNodes>
      <leafValues>
        1.1789333075284958e-01 -6.0145914554595947e-01</leafValues></_>
    <_>
      <internalNodes>
        0 -1 154896 3.5878994967788458e-03</internalNodes>
      <leafValues>
        -1.8332123756408691e-01 3.7583002448081970e-01</leafValues></_>
    <_>
      <internalNodes>
        0 -1 25608 6.5933789301197976e-05</internalNodes>
      <leafValues>
        1.5249675512313843e-01 -3.7317326664924622e-01</leafValues></_>
    <_>
      <internalNodes>
        0 -1 160208 1.0555972345173359e-02</internalNodes>
      <leafValues>
        8.8911883533000946e-02 -7.6182454824447632e-01</leafValues></_>
    <_>
      <internalNodes>
        0 -1 159531 -4.7464799135923386e-03</internalNodes>
      <leafValues>
        4.1506096720695496e-01 -1.5646068751811981e-01</leafValues></_>
    <_>
      <internalNodes>
        0 -1 50539 -5.7526952587068081e-03</internalNodes>
      <leafValues>
        4.9229061603546143e-01 -1.2572613358497620e-01</leafValues></_>
    <_>
      <internalNodes>
        0 -1 127970 1.8816741649061441e-03</internalNodes>
      <leafValues>
        -1.4137855172157288e-01 4.3720245361328125e-01</leafValues></_>
    <_>
      <internalNodes>
        0 -1 138958 -3.0655480804853141e-04</internalNodes>
      <leafValues>
        1.7533332109451294e-01 -4.3371602892875671e-01</leafValues></_>
    <_>
      <internalNodes>
        0 -1 161181 -5.3320167353376746e-04</internalNodes>
      <leafValues>
        -3.2796350121498108e-01 2.2403280436992645e-01</leafValues></_>
    <_>
      <internalNodes>
        0 -1 19305 4.2297933250665665e-03</internalNodes>
      <leafValues>
        7.9026609659194946e-02 -6.9349092245101929e-01</leafValues></_></weakClassifiers></stage11>
</opencv_storage>
