<?xml version="1.0"?>
<opencv_storage>
<stage2>
  <maxWeakCount>10</maxWeakCount>
  <stageThreshold>-8.6301648616790771e-01</stageThreshold>
  <weakClassifiers>
    <_>
      <internalNodes>
        0 -1 36229 -1.0044686496257782e-01</internalNodes>
      <leafValues>
        5.7710653543472290e-01 -5.1401871442794800e-01</leafValues></_>
    <_>
      <internalNodes>
        0 -1 152586 -2.9183840379118919e-02</internalNodes>
      <leafValues>
        7.8006970882415771e-01 -2.6533800363540649e-01</leafValues></_>
    <_>
      <internalNodes>
        0 -1 34950 1.9917469471693039e-03</internalNodes>
      <leafValues>
        1.9730195403099060e-01 -8.2981020212173462e-01</leafValues></_>
    <_>
      <internalNodes>
        0 -1 101151 -2.4057128757704049e-04</internalNodes>
      <leafValues>
        2.5662130117416382e-01 -4.5984190702438354e-01</leafValues></_>
    <_>
      <internalNodes>
        0 -1 5847 2.3096972145140171e-03</internalNodes>
      <leafValues>
        -2.1090573072433472e-01 5.9275960922241211e-01</leafValues></_>
    <_>
      <internalNodes>
        0 -1 12340 -3.3944576978683472e-02</internalNodes>
      <leafValues>
        5.3955078125000000e-01 -2.4458916485309601e-01</leafValues></_>
    <_>
      <internalNodes>
        0 -1 110754 -6.0346079990267754e-03</internalNodes>
      <leafValues>
        -7.4953788518905640e-01 1.8009994924068451e-01</leafValues></_>
    <_>
      <internalNodes>
        0 -1 2408 4.6805888414382935e-02</internalNodes>
      <leafValues>
        -2.4855081737041473e-01 4.2842462658882141e-01</leafValues></_>
    <_>
      <internalNodes>
        0 -1 249 -6.6138152033090591e-03</internalNodes>
      <leafValues>
        5.6752437353134155e-01 -2.2506965696811676e-01</leafValues></_>
    <_>
      <internalNodes>
        0 -1 109708 -8.8106398470699787e-04</internalNodes>
      <leafValues>
        -4.4685173034667969e-01 2.5092011690139771e-01</leafValues></_></weakClassifiers></stage2>
</opencv_storage>
