<?xml version="1.0"?>
<opencv_storage>
<stage8>
  <maxWeakCount>12</maxWeakCount>
  <stageThreshold>-9.6378999948501587e-01</stageThreshold>
  <weakClassifiers>
    <_>
      <internalNodes>
        0 -1 15589 1.8843427300453186e-02</internalNodes>
      <leafValues>
        -2.7075812220573425e-01 5.8636361360549927e-01</leafValues></_>
    <_>
      <internalNodes>
        0 -1 24572 -1.5130132436752319e-02</internalNodes>
      <leafValues>
        3.5155189037322998e-01 -3.1960126757621765e-01</leafValues></_>
    <_>
      <internalNodes>
        0 -1 154133 -1.3858657439413946e-05</internalNodes>
      <leafValues>
        2.2238434851169586e-01 -3.8278010487556458e-01</leafValues></_>
    <_>
      <internalNodes>
        0 -1 27489 1.7587382346391678e-02</internalNodes>
      <leafValues>
        1.0912588983774185e-01 -7.2487819194793701e-01</leafValues></_>
    <_>
      <internalNodes>
        0 -1 154051 9.7086117602884769e-04</internalNodes>
      <leafValues>
        1.2085778266191483e-01 -5.5340385437011719e-01</leafValues></_>
    <_>
      <internalNodes>
        0 -1 3258 -2.0198933780193329e-02</internalNodes>
      <leafValues>
        6.5067225694656372e-01 -1.1779326200485229e-01</leafValues></_>
    <_>
      <internalNodes>
        0 -1 9466 5.0771050155162811e-03</internalNodes>
      <leafValues>
        -1.7126944661140442e-01 5.1413947343826294e-01</leafValues></_>
    <_>
      <internalNodes>
        0 -1 113577 2.5220669340342283e-03</internalNodes>
      <leafValues>
        9.0316459536552429e-02 -7.8659427165985107e-01</leafValues></_>
    <_>
      <internalNodes>
        0 -1 88804 -3.7135414459044114e-05</internalNodes>
      <leafValues>
        1.7169058322906494e-01 -3.9609301090240479e-01</leafValues></_>
    <_>
      <internalNodes>
        0 -1 155514 -4.7967312857508659e-03</internalNodes>
      <leafValues>
        5.0770527124404907e-01 -1.6922518610954285e-01</leafValues></_>
    <_>
      <internalNodes>
        0 -1 157862 3.7438925355672836e-03</internalNodes>
      <leafValues>
        -2.0592254400253296e-01 5.7552897930145264e-01</leafValues></_>
    <_>
      <internalNodes>
        0 -1 91239 -8.2976103294640779e-04</internalNodes>
      <leafValues>
        -6.7753386497497559e-01 1.4151953160762787e-01</leafValues></_></weakClassifiers></stage8>
</opencv_storage>
