<?xml version="1.0"?>
<opencv_storage>
<stage20>
  <maxWeakCount>36</maxWeakCount>
  <stageThreshold>-1.1008040904998779e+00</stageThreshold>
  <weakClassifiers>
    <_>
      <internalNodes>
        0 -1 80841 2.4027454201132059e-03</internalNodes>
      <leafValues>
        -1.9274376332759857e-01 4.1324922442436218e-01</leafValues></_>
    <_>
      <internalNodes>
        0 -1 24055 1.4742701314389706e-03</internalNodes>
      <leafValues>
        -1.4069387316703796e-01 3.4015211462974548e-01</leafValues></_>
    <_>
      <internalNodes>
        0 -1 16614 -7.7108010649681091e-02</internalNodes>
      <leafValues>
        -5.9283596277236938e-01 4.2116664350032806e-02</leafValues></_>
    <_>
      <internalNodes>
        0 -1 1720 8.6260572075843811e-02</internalNodes>
      <leafValues>
        -1.1130633205175400e-01 3.4255692362785339e-01</leafValues></_>
    <_>
      <internalNodes>
        0 -1 155868 2.7270019054412842e-03</internalNodes>
      <leafValues>
        -1.4679160714149475e-01 4.9669525027275085e-01</leafValues></_>
    <_>
      <internalNodes>
        0 -1 152087 -2.2300040349364281e-02</internalNodes>
      <leafValues>
        -5.2020722627639771e-01 1.4176157116889954e-01</leafValues></_>
    <_>
      <internalNodes>
        0 -1 157438 -1.2292208150029182e-02</internalNodes>
      <leafValues>
        2.7368903160095215e-01 -2.0349143445491791e-01</leafValues></_>
    <_>
      <internalNodes>
        0 -1 159104 -1.2598075954883825e-05</internalNodes>
      <leafValues>
        1.3975751399993896e-01 -3.2000321149826050e-01</leafValues></_>
    <_>
      <internalNodes>
        0 -1 112157 1.9858169835060835e-03</internalNodes>
      <leafValues>
        -2.1413891017436981e-01 2.2734750807285309e-01</leafValues></_>
    <_>
      <internalNodes>
        0 -1 13590 -7.6126255095005035e-02</internalNodes>
      <leafValues>
        7.3238623142242432e-01 -8.1023275852203369e-02</leafValues></_>
    <_>
      <internalNodes>
        0 -1 110122 -6.9663859903812408e-05</internalNodes>
      <leafValues>
        1.3098540902137756e-01 -3.6298671364784241e-01</leafValues></_>
    <_>
      <internalNodes>
        0 -1 7971 -1.3234063982963562e-01</internalNodes>
      <leafValues>
        -5.7640510797500610e-01 1.0115121304988861e-01</leafValues></_>
    <_>
      <internalNodes>
        0 -1 139320 -8.8196591241285205e-04</internalNodes>
      <leafValues>
        3.7695404887199402e-01 -1.2356822192668915e-01</leafValues></_>
    <_>
      <internalNodes>
        0 -1 69306 -6.5405187197029591e-03</internalNodes>
      <leafValues>
        -5.7009601593017578e-01 6.7768670618534088e-02</leafValues></_>
    <_>
      <internalNodes>
        0 -1 160578 4.6631852164864540e-03</internalNodes>
      <leafValues>
        -1.2600068747997284e-01 3.6707866191864014e-01</leafValues></_>
    <_>
      <internalNodes>
        0 -1 66760 -1.3355974806472659e-04</internalNodes>
      <leafValues>
        2.4180439114570618e-01 -1.8378169834613800e-01</leafValues></_>
    <_>
      <internalNodes>
        0 -1 106965 -4.6436889097094536e-03</internalNodes>
      <leafValues>
        -4.5547643303871155e-01 7.9958796501159668e-02</leafValues></_>
    <_>
      <internalNodes>
        0 -1 70020 1.3569933362305164e-03</internalNodes>
      <leafValues>
        1.4633259177207947e-01 -2.9097661375999451e-01</leafValues></_>
    <_>
      <internalNodes>
        0 -1 158471 -5.6912489235401154e-03</internalNodes>
      <leafValues>
        4.4996458292007446e-01 -9.0495266020298004e-02</leafValues></_>
    <_>
      <internalNodes>
        0 -1 49102 -9.8899919539690018e-03</internalNodes>
      <leafValues>
        1.5866439044475555e-01 -2.8128197789192200e-01</leafValues></_>
    <_>
      <internalNodes>
        0 -1 2176 -2.1182108670473099e-02</internalNodes>
      <leafValues>
        -3.2096785306930542e-01 1.4443008601665497e-01</leafValues></_>
    <_>
      <internalNodes>
        0 -1 150578 2.0025085541419685e-04</internalNodes>
      <leafValues>
        8.4593228995800018e-02 -4.9867451190948486e-01</leafValues></_>
    <_>
      <internalNodes>
        0 -1 114427 5.6336360285058618e-04</internalNodes>
      <leafValues>
        9.6446633338928223e-02 -3.9652144908905029e-01</leafValues></_>
    <_>
      <internalNodes>
        0 -1 70799 -4.6470033703371882e-04</internalNodes>
      <leafValues>
        3.4056851267814636e-01 -1.2716364860534668e-01</leafValues></_>
    <_>
      <internalNodes>
        0 -1 134003 2.2005545906722546e-03</internalNodes>
      <leafValues>
        -1.6115412116050720e-01 2.5417643785476685e-01</leafValues></_>
    <_>
      <internalNodes>
        0 -1 122592 -7.8812418505549431e-03</internalNodes>
      <leafValues>
        -4.2916432023048401e-01 9.7003877162933350e-02</leafValues></_>
    <_>
      <internalNodes>
        0 -1 617 -1.2051212787628174e-01</internalNodes>
      <leafValues>
        5.6376141309738159e-01 -7.9632788896560669e-02</leafValues></_>
    <_>
      <internalNodes>
        0 -1 135438 -2.9229966457933187e-04</internalNodes>
      <leafValues>
        -3.9336612820625305e-01 1.2512956559658051e-01</leafValues></_>
    <_>
      <internalNodes>
        0 -1 143918 -1.0041178902611136e-03</internalNodes>
      <leafValues>
        2.1188209950923920e-01 -1.8725000321865082e-01</leafValues></_>
    <_>
      <internalNodes>
        0 -1 153664 -1.0852902050828561e-04</internalNodes>
      <leafValues>
        1.3046462833881378e-01 -3.0289381742477417e-01</leafValues></_>
    <_>
      <internalNodes>
        0 -1 155437 -7.8804540680721402e-04</internalNodes>
      <leafValues>
        3.3533889055252075e-01 -1.3567601144313812e-01</leafValues></_>
    <_>
      <internalNodes>
        0 -1 51935 -3.6560902372002602e-03</internalNodes>
      <leafValues>
        4.2645907402038574e-01 -9.6475444734096527e-02</leafValues></_>
    <_>
      <internalNodes>
        0 -1 40876 1.5034861862659454e-03</internalNodes>
      <leafValues>
        -2.2996686398983002e-01 1.9374375045299530e-01</leafValues></_>
    <_>
      <internalNodes>
        0 -1 148279 -1.0258707916364074e-03</internalNodes>
      <leafValues>
        4.1541826725006104e-01 -1.2012001872062683e-01</leafValues></_>
    <_>
      <internalNodes>
        0 -1 139253 -6.1006407486274838e-04</internalNodes>
      <leafValues>
        -4.2271518707275391e-01 1.1020082980394363e-01</leafValues></_>
    <_>
      <internalNodes>
        0 -1 161043 -1.3165343552827835e-02</internalNodes>
      <leafValues>
        -8.7924337387084961e-01 3.7755496799945831e-02</leafValues></_></weakClassifiers></stage20>
</opencv_storage>
