<?xml version="1.0"?>
<opencv_storage>
<stage10>
  <maxWeakCount>19</maxWeakCount>
  <stageThreshold>-9.9998611211776733e-01</stageThreshold>
  <weakClassifiers>
    <_>
      <internalNodes>
        0 -1 5878 8.6163450032472610e-03</internalNodes>
      <leafValues>
        -3.1051963567733765e-01 5.0243902206420898e-01</leafValues></_>
    <_>
      <internalNodes>
        0 -1 153204 4.7115571796894073e-03</internalNodes>
      <leafValues>
        -2.2918838262557983e-01 5.1035755872726440e-01</leafValues></_>
    <_>
      <internalNodes>
        0 -1 121262 2.9025806579738855e-03</internalNodes>
      <leafValues>
        -1.7097422480583191e-01 3.9940029382705688e-01</leafValues></_>
    <_>
      <internalNodes>
        0 -1 60373 -2.8785911854356527e-03</internalNodes>
      <leafValues>
        5.5095827579498291e-01 -1.4547927677631378e-01</leafValues></_>
    <_>
      <internalNodes>
        0 -1 90018 1.7927099019289017e-02</internalNodes>
      <leafValues>
        7.6116800308227539e-02 -8.3032017946243286e-01</leafValues></_>
    <_>
      <internalNodes>
        0 -1 11919 8.1297028809785843e-03</internalNodes>
      <leafValues>
        -9.5179282128810883e-02 6.7712998390197754e-01</leafValues></_>
    <_>
      <internalNodes>
        0 -1 151978 -3.5538082011044025e-03</internalNodes>
      <leafValues>
        4.0660902857780457e-01 -1.5269967913627625e-01</leafValues></_>
    <_>
      <internalNodes>
        0 -1 28181 -1.8402091227471828e-03</internalNodes>
      <leafValues>
        3.7005484104156494e-01 -1.8023769557476044e-01</leafValues></_>
    <_>
      <internalNodes>
        0 -1 14406 -1.1564911901950836e-01</internalNodes>
      <leafValues>
        3.7646415829658508e-01 -1.9966104626655579e-01</leafValues></_>
    <_>
      <internalNodes>
        0 -1 48409 -2.6468634605407715e-02</internalNodes>
      <leafValues>
        2.5059488415718079e-01 -4.0118452906608582e-01</leafValues></_>
    <_>
      <internalNodes>
        0 -1 139223 3.2084516715258360e-03</internalNodes>
      <leafValues>
        -1.3272193074226379e-01 5.7739597558975220e-01</leafValues></_>
    <_>
      <internalNodes>
        0 -1 12149 1.6748122870922089e-02</internalNodes>
      <leafValues>
        1.3431116938591003e-01 -5.8096557855606079e-01</leafValues></_>
    <_>
      <internalNodes>
        0 -1 13566 9.2444457113742828e-03</internalNodes>
      <leafValues>
        -1.6533704102039337e-01 3.5889667272567749e-01</leafValues></_>
    <_>
      <internalNodes>
        0 -1 1263 -3.9681368507444859e-03</internalNodes>
      <leafValues>
        5.1930606365203857e-01 -1.3304656744003296e-01</leafValues></_>
    <_>
      <internalNodes>
        0 -1 150059 2.2663226351141930e-02</internalNodes>
      <leafValues>
        9.6372984349727631e-02 -7.9103624820709229e-01</leafValues></_>
    <_>
      <internalNodes>
        0 -1 84967 2.2923583164811134e-03</internalNodes>
      <leafValues>
        -2.8826579451560974e-01 2.3488780856132507e-01</leafValues></_>
    <_>
      <internalNodes>
        0 -1 160408 -4.3907240033149719e-03</internalNodes>
      <leafValues>
        5.6216794252395630e-01 -9.4112686812877655e-02</leafValues></_>
    <_>
      <internalNodes>
        0 -1 139248 -3.3309590071439743e-04</internalNodes>
      <leafValues>
        -4.2205604910850525e-01 1.5128685534000397e-01</leafValues></_>
    <_>
      <internalNodes>
        0 -1 13205 3.1618252396583557e-03</internalNodes>
      <leafValues>
        -1.9810034334659576e-01 3.3031809329986572e-01</leafValues></_></weakClassifiers></stage10>
</opencv_storage>
