<?xml version="1.0"?>
<opencv_storage>
<stage23>
  <maxWeakCount>35</maxWeakCount>
  <stageThreshold>-8.4131908416748047e-01</stageThreshold>
  <weakClassifiers>
    <_>
      <internalNodes>
        0 -1 152055 -1.1248689144849777e-02</internalNodes>
      <leafValues>
        2.9832935333251953e-01 -2.1025641262531281e-01</leafValues></_>
    <_>
      <internalNodes>
        0 -1 152383 2.7708397246897221e-03</internalNodes>
      <leafValues>
        -1.9307413697242737e-01 2.3475037515163422e-01</leafValues></_>
    <_>
      <internalNodes>
        0 -1 1867 1.7491534352302551e-02</internalNodes>
      <leafValues>
        9.2429652810096741e-02 -4.6105214953422546e-01</leafValues></_>
    <_>
      <internalNodes>
        0 -1 89275 -6.1496421694755554e-03</internalNodes>
      <leafValues>
        -6.1231458187103271e-01 7.0077344775199890e-02</leafValues></_>
    <_>
      <internalNodes>
        0 -1 46422 4.3178312480449677e-02</internalNodes>
      <leafValues>
        7.7898830175399780e-02 -5.7020324468612671e-01</leafValues></_>
    <_>
      <internalNodes>
        0 -1 161855 5.8601265773177147e-03</internalNodes>
      <leafValues>
        -7.5774259865283966e-02 5.7985311746597290e-01</leafValues></_>
    <_>
      <internalNodes>
        0 -1 159578 -7.2810100391507149e-03</internalNodes>
      <leafValues>
        3.0833938717842102e-01 -1.7967177927494049e-01</leafValues></_>
    <_>
      <internalNodes>
        0 -1 60763 -1.1810045689344406e-02</internalNodes>
      <leafValues>
        6.0836732387542725e-01 -8.8790453970432281e-02</leafValues></_>
    <_>
      <internalNodes>
        0 -1 35777 -4.8748534172773361e-02</internalNodes>
      <leafValues>
        1.6703417897224426e-01 -2.6698011159896851e-01</leafValues></_>
    <_>
      <internalNodes>
        0 -1 159833 5.8704998809844255e-04</internalNodes>
      <leafValues>
        1.3756865262985229e-01 -3.5238638520240784e-01</leafValues></_>
    <_>
      <internalNodes>
        0 -1 6081 -2.9335364233702421e-03</internalNodes>
      <leafValues>
        1.9338908791542053e-01 -2.2393588721752167e-01</leafValues></_>
    <_>
      <internalNodes>
        0 -1 89749 6.8109659478068352e-03</internalNodes>
      <leafValues>
        -1.0396016389131546e-01 4.1513606905937195e-01</leafValues></_>
    <_>
      <internalNodes>
        0 -1 25859 -1.2585088610649109e-02</internalNodes>
      <leafValues>
        -5.7019817829132080e-01 8.3041355013847351e-02</leafValues></_>
    <_>
      <internalNodes>
        0 -1 150981 -3.5710803786059842e-05</internalNodes>
      <leafValues>
        1.1468351632356644e-01 -3.3360612392425537e-01</leafValues></_>
    <_>
      <internalNodes>
        0 -1 9935 1.3866671919822693e-01</internalNodes>
      <leafValues>
        3.7851888686418533e-02 -7.6575177907943726e-01</leafValues></_>
    <_>
      <internalNodes>
        0 -1 10578 -3.4990101121366024e-03</internalNodes>
      <leafValues>
        2.9818913340568542e-01 -1.1963883042335510e-01</leafValues></_>
    <_>
      <internalNodes>
        0 -1 27492 -2.2407292854040861e-03</internalNodes>
      <leafValues>
        -2.7713727951049805e-01 1.3861247897148132e-01</leafValues></_>
    <_>
      <internalNodes>
        0 -1 10568 9.9153537303209305e-04</internalNodes>
      <leafValues>
        -1.1180087924003601e-01 3.0626958608627319e-01</leafValues></_>
    <_>
      <internalNodes>
        0 -1 119910 -3.7302746204659343e-04</internalNodes>
      <leafValues>
        -2.6054567098617554e-01 1.3659620285034180e-01</leafValues></_>
    <_>
      <internalNodes>
        0 -1 162066 -2.4199286417569965e-04</internalNodes>
      <leafValues>
        -1.6009749472141266e-01 2.4108044803142548e-01</leafValues></_>
    <_>
      <internalNodes>
        0 -1 1631 7.1497306227684021e-02</internalNodes>
      <leafValues>
        -8.4316737949848175e-02 4.5548844337463379e-01</leafValues></_>
    <_>
      <internalNodes>
        0 -1 36249 6.5004325006157160e-04</internalNodes>
      <leafValues>
        6.8829715251922607e-02 -5.5214267969131470e-01</leafValues></_>
    <_>
      <internalNodes>
        0 -1 107447 2.9190134955570102e-04</internalNodes>
      <leafValues>
        1.0735176503658295e-01 -3.0173811316490173e-01</leafValues></_>
    <_>
      <internalNodes>
        0 -1 161382 2.6092000771313906e-03</internalNodes>
      <leafValues>
        4.5304134488105774e-02 -6.8023449182510376e-01</leafValues></_>
    <_>
      <internalNodes>
        0 -1 148542 -1.6537081450223923e-02</internalNodes>
      <leafValues>
        4.3796321749687195e-01 -7.9540535807609558e-02</leafValues></_>
    <_>
      <internalNodes>
        0 -1 127837 -1.5330725349485874e-02</internalNodes>
      <leafValues>
        2.3257599771022797e-01 -2.1537689864635468e-01</leafValues></_>
    <_>
      <internalNodes>
        0 -1 159871 -3.8628438487648964e-03</internalNodes>
      <leafValues>
        3.7592232227325439e-01 -9.8922625184059143e-02</leafValues></_>
    <_>
      <internalNodes>
        0 -1 564 -2.9281415045261383e-03</internalNodes>
      <leafValues>
        3.3310610055923462e-01 -1.2700042128562927e-01</leafValues></_>
    <_>
      <internalNodes>
        0 -1 70798 3.9594382978975773e-03</internalNodes>
      <leafValues>
        7.2376064956188202e-02 -5.9210503101348877e-01</leafValues></_>
    <_>
      <internalNodes>
        0 -1 14199 3.1373552046716213e-03</internalNodes>
      <leafValues>
        -2.5943416357040405e-01 1.4983949065208435e-01</leafValues></_>
    <_>
      <internalNodes>
        0 -1 60444 -1.0425790678709745e-03</internalNodes>
      <leafValues>
        2.9584771394729614e-01 -1.2104945629835129e-01</leafValues></_>
    <_>
      <internalNodes>
        0 -1 107941 4.6992324292659760e-02</internalNodes>
      <leafValues>
        5.1039077341556549e-02 -7.4795490503311157e-01</leafValues></_>
    <_>
      <internalNodes>
        0 -1 158649 8.6678080260753632e-03</internalNodes>
      <leafValues>
        5.2484538406133652e-02 -5.4808491468429565e-01</leafValues></_>
    <_>
      <internalNodes>
        0 -1 106095 -7.5324627687223256e-05</internalNodes>
      <leafValues>
        2.2451473772525787e-01 -1.4742961525917053e-01</leafValues></_>
    <_>
      <internalNodes>
        0 -1 34221 1.0141456127166748e-01</internalNodes>
      <leafValues>
        -6.3147224485874176e-02 5.0035285949707031e-01</leafValues></_></weakClassifiers></stage23>
</opencv_storage>
