<?xml version="1.0"?>
<opencv_storage>
<stage26>
  <maxWeakCount>37</maxWeakCount>
  <stageThreshold>-7.8390812873840332e-01</stageThreshold>
  <weakClassifiers>
    <_>
      <internalNodes>
        0 -1 16448 -1.3777989894151688e-02</internalNodes>
      <leafValues>
        3.8993710279464722e-01 -1.8501701951026917e-01</leafValues></_>
    <_>
      <internalNodes>
        0 -1 89581 1.6030275728553534e-03</internalNodes>
      <leafValues>
        -1.2767629325389862e-01 3.2258906960487366e-01</leafValues></_>
    <_>
      <internalNodes>
        0 -1 5031 -1.9157368224114180e-03</internalNodes>
      <leafValues>
        2.6799485087394714e-01 -1.6928373277187347e-01</leafValues></_>
    <_>
      <internalNodes>
        0 -1 26021 7.9312548041343689e-02</internalNodes>
      <leafValues>
        5.7674594223499298e-02 -6.5473979711532593e-01</leafValues></_>
    <_>
      <internalNodes>
        0 -1 105510 -2.0528478547930717e-02</internalNodes>
      <leafValues>
        -5.4140549898147583e-01 1.1954101175069809e-01</leafValues></_>
    <_>
      <internalNodes>
        0 -1 153233 -3.0975729227066040e-02</internalNodes>
      <leafValues>
        -8.5878521203994751e-01 3.5625077784061432e-02</leafValues></_>
    <_>
      <internalNodes>
        0 -1 13006 -5.9138884535059333e-04</internalNodes>
      <leafValues>
        -2.4530352652072906e-01 1.4058695733547211e-01</leafValues></_>
    <_>
      <internalNodes>
        0 -1 81034 4.0114158764481544e-03</internalNodes>
      <leafValues>
        8.0221809446811676e-02 -3.2732695341110229e-01</leafValues></_>
    <_>
      <internalNodes>
        0 -1 25922 -2.0134918391704559e-02</internalNodes>
      <leafValues>
        5.2581000328063965e-01 -5.3805198520421982e-02</leafValues></_>
    <_>
      <internalNodes>
        0 -1 161839 -2.4934820248745382e-04</internalNodes>
      <leafValues>
        1.7229886353015900e-01 -2.8302320837974548e-01</leafValues></_>
    <_>
      <internalNodes>
        0 -1 6704 1.7091915942728519e-03</internalNodes>
      <leafValues>
        -1.6654601693153381e-01 2.5826358795166016e-01</leafValues></_>
    <_>
      <internalNodes>
        0 -1 161708 9.2826067702844739e-04</internalNodes>
      <leafValues>
        -7.4411012232303619e-02 4.6132495999336243e-01</leafValues></_>
    <_>
      <internalNodes>
        0 -1 47257 -5.0517250201664865e-05</internalNodes>
      <leafValues>
        1.0441894829273224e-01 -4.1470301151275635e-01</leafValues></_>
    <_>
      <internalNodes>
        0 -1 148874 1.3435920118354261e-04</internalNodes>
      <leafValues>
        -1.7079329490661621e-01 2.1809588372707367e-01</leafValues></_>
    <_>
      <internalNodes>
        0 -1 35782 2.4928352795541286e-03</internalNodes>
      <leafValues>
        -2.1054819226264954e-01 1.6564954817295074e-01</leafValues></_>
    <_>
      <internalNodes>
        0 -1 15 7.4768817285075784e-05</internalNodes>
      <leafValues>
        2.0861524343490601e-01 -1.5397129952907562e-01</leafValues></_>
    <_>
      <internalNodes>
        0 -1 5 -1.0823855409398675e-03</internalNodes>
      <leafValues>
        -5.7556945085525513e-01 4.6921119093894958e-02</leafValues></_>
    <_>
      <internalNodes>
        0 -1 10035 5.8156601153314114e-03</internalNodes>
      <leafValues>
        -5.8519303798675537e-02 6.0839450359344482e-01</leafValues></_>
    <_>
      <internalNodes>
        0 -1 62184 -2.7333605103194714e-03</internalNodes>
      <leafValues>
        -4.1418704390525818e-01 9.0330347418785095e-02</leafValues></_>
    <_>
      <internalNodes>
        0 -1 150591 2.2925188764929771e-02</internalNodes>
      <leafValues>
        5.0630994141101837e-02 -6.3174545764923096e-01</leafValues></_>
    <_>
      <internalNodes>
        0 -1 120926 8.4908457938581705e-04</internalNodes>
      <leafValues>
        -1.6349253058433533e-01 2.1304386854171753e-01</leafValues></_>
    <_>
      <internalNodes>
        0 -1 70652 1.0279230773448944e-03</internalNodes>
      <leafValues>
        -8.4964111447334290e-02 3.7992238998413086e-01</leafValues></_>
    <_>
      <internalNodes>
        0 -1 7 1.1227279173908755e-04</internalNodes>
      <leafValues>
        1.1642438173294067e-01 -2.5961938500404358e-01</leafValues></_>
    <_>
      <internalNodes>
        0 -1 131871 9.7579933935776353e-04</internalNodes>
      <leafValues>
        -1.1034939438104630e-01 2.8746429085731506e-01</leafValues></_>
    <_>
      <internalNodes>
        0 -1 149637 -1.6258950927294791e-04</internalNodes>
      <leafValues>
        -3.7338709831237793e-01 8.6376100778579712e-02</leafValues></_>
    <_>
      <internalNodes>
        0 -1 138953 1.1228967458009720e-02</internalNodes>
      <leafValues>
        -8.4679804742336273e-02 3.9875921607017517e-01</leafValues></_>
    <_>
      <internalNodes>
        0 -1 157583 6.7240779753774405e-04</internalNodes>
      <leafValues>
        1.0787370055913925e-01 -3.3293539285659790e-01</leafValues></_>
    <_>
      <internalNodes>
        0 -1 111857 -2.1072234958410263e-03</internalNodes>
      <leafValues>
        8.4242630004882812e-01 -4.2517747730016708e-02</leafValues></_>
    <_>
      <internalNodes>
        0 -1 58573 -3.8686914194840938e-05</internalNodes>
      <leafValues>
        1.1130893230438232e-01 -3.4216976165771484e-01</leafValues></_>
    <_>
      <internalNodes>
        0 -1 159371 -2.4831484188325703e-04</internalNodes>
      <leafValues>
        1.8497988581657410e-01 -1.7564630508422852e-01</leafValues></_>
    <_>
      <internalNodes>
        0 -1 12960 -1.1398462578654289e-02</internalNodes>
      <leafValues>
        -3.4821259975433350e-01 1.0758996754884720e-01</leafValues></_>
    <_>
      <internalNodes>
        0 -1 25773 1.0673948563635349e-02</internalNodes>
      <leafValues>
        1.3777090609073639e-01 -2.1676191687583923e-01</leafValues></_>
    <_>
      <internalNodes>
        0 -1 59409 1.2112171947956085e-01</internalNodes>
      <leafValues>
        -6.5072648227214813e-02 6.6376090049743652e-01</leafValues></_>
    <_>
      <internalNodes>
        0 -1 96511 -4.2515769600868225e-03</internalNodes>
      <leafValues>
        7.0185685157775879e-01 -3.9839349687099457e-02</leafValues></_>
    <_>
      <internalNodes>
        0 -1 155166 -1.3867897912859917e-02</internalNodes>
      <leafValues>
        7.1891731023788452e-01 -4.2606286704540253e-02</leafValues></_>
    <_>
      <internalNodes>
        0 -1 3969 -6.5918996930122375e-02</internalNodes>
      <leafValues>
        -2.9968208074569702e-01 1.4217713475227356e-01</leafValues></_>
    <_>
      <internalNodes>
        0 -1 99704 -3.9734132587909698e-04</internalNodes>
      <leafValues>
        2.1699728071689606e-01 -1.6570252180099487e-01</leafValues></_></weakClassifiers></stage26>
</opencv_storage>
