<?xml version="1.0"?>
<opencv_storage>
<stage17>
  <maxWeakCount>25</maxWeakCount>
  <stageThreshold>-8.7926650047302246e-01</stageThreshold>
  <weakClassifiers>
    <_>
      <internalNodes>
        0 -1 161345 -3.6094500683248043e-03</internalNodes>
      <leafValues>
        4.2352941632270813e-01 -2.1303841471672058e-01</leafValues></_>
    <_>
      <internalNodes>
        0 -1 17195 4.7214305959641933e-03</internalNodes>
      <leafValues>
        -1.9038279354572296e-01 3.2420650124549866e-01</leafValues></_>
    <_>
      <internalNodes>
        0 -1 157775 6.7598178982734680e-02</internalNodes>
      <leafValues>
        9.9901095032691956e-02 -5.9162807464599609e-01</leafValues></_>
    <_>
      <internalNodes>
        0 -1 139483 -1.0226514190435410e-02</internalNodes>
      <leafValues>
        4.5124000310897827e-01 -1.0987646877765656e-01</leafValues></_>
    <_>
      <internalNodes>
        0 -1 90064 -2.3559117689728737e-03</internalNodes>
      <leafValues>
        -5.3670251369476318e-01 9.5951981842517853e-02</leafValues></_>
    <_>
      <internalNodes>
        0 -1 161031 2.5990218855440617e-03</internalNodes>
      <leafValues>
        -6.8641133606433868e-02 7.0702481269836426e-01</leafValues></_>
    <_>
      <internalNodes>
        0 -1 150409 -2.1767873317003250e-02</internalNodes>
      <leafValues>
        -7.7404040098190308e-01 7.1004055440425873e-02</leafValues></_>
    <_>
      <internalNodes>
        0 -1 37480 2.8240209212526679e-04</internalNodes>
      <leafValues>
        -2.1428336203098297e-01 2.2579568624496460e-01</leafValues></_>
    <_>
      <internalNodes>
        0 -1 38311 -2.6823015883564949e-02</internalNodes>
      <leafValues>
        7.3222202062606812e-01 -7.3353365063667297e-02</leafValues></_>
    <_>
      <internalNodes>
        0 -1 3555 -5.3376415744423866e-03</internalNodes>
      <leafValues>
        2.3945805430412292e-01 -2.2299227118492126e-01</leafValues></_>
    <_>
      <internalNodes>
        0 -1 106052 -3.1000474467873573e-02</internalNodes>
      <leafValues>
        1.8506760895252228e-01 -2.9430586099624634e-01</leafValues></_>
    <_>
      <internalNodes>
        0 -1 48786 1.0206450708210468e-02</internalNodes>
      <leafValues>
        -7.8959368169307709e-02 6.6838371753692627e-01</leafValues></_>
    <_>
      <internalNodes>
        0 -1 154973 -9.1536081163212657e-04</internalNodes>
      <leafValues>
        3.0672168731689453e-01 -1.6997124254703522e-01</leafValues></_>
    <_>
      <internalNodes>
        0 -1 124680 -5.1954531954834238e-05</internalNodes>
      <leafValues>
        1.4073072373867035e-01 -4.3825787305831909e-01</leafValues></_>
    <_>
      <internalNodes>
        0 -1 48373 -3.0666489154100418e-02</internalNodes>
      <leafValues>
        1.6009095311164856e-01 -3.0442517995834351e-01</leafValues></_>
    <_>
      <internalNodes>
        0 -1 162155 -1.4417491853237152e-02</internalNodes>
      <leafValues>
        -3.0856880545616150e-01 1.9455413520336151e-01</leafValues></_>
    <_>
      <internalNodes>
        0 -1 88552 7.7744852751493454e-04</internalNodes>
      <leafValues>
        1.1100732535123825e-01 -4.4103562831878662e-01</leafValues></_>
    <_>
      <internalNodes>
        0 -1 13297 -1.2125507055316120e-04</internalNodes>
      <leafValues>
        -3.0968418717384338e-01 1.7451839148998260e-01</leafValues></_>
    <_>
      <internalNodes>
        0 -1 144593 2.2595750633627176e-03</internalNodes>
      <leafValues>
        -1.2363785505294800e-01 4.1966411471366882e-01</leafValues></_>
    <_>
      <internalNodes>
        0 -1 16926 -6.1386520974338055e-03</internalNodes>
      <leafValues>
        -5.9580820798873901e-01 9.0156614780426025e-02</leafValues></_>
    <_>
      <internalNodes>
        0 -1 121666 4.3449560180306435e-03</internalNodes>
      <leafValues>
        -1.1190299689769745e-01 4.8473200201988220e-01</leafValues></_>
    <_>
      <internalNodes>
        0 -1 160557 -9.6414744621142745e-04</internalNodes>
      <leafValues>
        1.2136294692754745e-01 -4.0703496336936951e-01</leafValues></_>
    <_>
      <internalNodes>
        0 -1 157618 -2.0631002262234688e-03</internalNodes>
      <leafValues>
        5.1328045129776001e-01 -1.2664768099784851e-01</leafValues></_>
    <_>
      <internalNodes>
        0 -1 159449 7.3650770355015993e-04</internalNodes>
      <leafValues>
        -1.8170937895774841e-01 2.6910284161567688e-01</leafValues></_>
    <_>
      <internalNodes>
        0 -1 135065 1.7123249126598239e-03</internalNodes>
      <leafValues>
        8.6120523512363434e-02 -6.7078763246536255e-01</leafValues></_></weakClassifiers></stage17>
</opencv_storage>
