<?xml version="1.0"?>
<opencv_storage>
<stage13>
  <maxWeakCount>25</maxWeakCount>
  <stageThreshold>-1.1192721128463745e+00</stageThreshold>
  <weakClassifiers>
    <_>
      <internalNodes>
        0 -1 174 1.0719534941017628e-02</internalNodes>
      <leafValues>
        -2.3393939435482025e-01 5.0672644376754761e-01</leafValues></_>
    <_>
      <internalNodes>
        0 -1 159827 7.0093095302581787e-02</internalNodes>
      <leafValues>
        -1.6896884143352509e-01 4.7432866692543030e-01</leafValues></_>
    <_>
      <internalNodes>
        0 -1 37981 -1.8167580128647387e-04</internalNodes>
      <leafValues>
        -4.4967129826545715e-01 1.5086485445499420e-01</leafValues></_>
    <_>
      <internalNodes>
        0 -1 76379 -3.3748437999747694e-05</internalNodes>
      <leafValues>
        1.4392876625061035e-01 -3.7237459421157837e-01</leafValues></_>
    <_>
      <internalNodes>
        0 -1 49807 -1.8573153764009476e-02</internalNodes>
      <leafValues>
        6.1050420999526978e-01 -1.3850186765193939e-01</leafValues></_>
    <_>
      <internalNodes>
        0 -1 157473 -2.9609180055558681e-03</internalNodes>
      <leafValues>
        4.4151622056961060e-01 -1.3976165652275085e-01</leafValues></_>
    <_>
      <internalNodes>
        0 -1 154693 4.9755987711250782e-03</internalNodes>
      <leafValues>
        -1.6229616105556488e-01 4.1803884506225586e-01</leafValues></_>
    <_>
      <internalNodes>
        0 -1 142865 -1.3111669431964401e-05</internalNodes>
      <leafValues>
        1.9658878445625305e-01 -3.7061020731925964e-01</leafValues></_>
    <_>
      <internalNodes>
        0 -1 18064 4.9896510317921638e-03</internalNodes>
      <leafValues>
        -1.7514245212078094e-01 4.1670221090316772e-01</leafValues></_>
    <_>
      <internalNodes>
        0 -1 127963 -1.0589107405394316e-03</internalNodes>
      <leafValues>
        3.8324531912803650e-01 -1.5833151340484619e-01</leafValues></_>
    <_>
      <internalNodes>
        0 -1 160749 -9.5322225242853165e-03</internalNodes>
      <leafValues>
        -4.7307646274566650e-01 1.2889856100082397e-01</leafValues></_>
    <_>
      <internalNodes>
        0 -1 69312 6.6955084912478924e-04</internalNodes>
      <leafValues>
        7.9106844961643219e-02 -6.7155438661575317e-01</leafValues></_>
    <_>
      <internalNodes>
        0 -1 139110 2.9275810811668634e-03</internalNodes>
      <leafValues>
        -1.5284788608551025e-01 3.6662811040878296e-01</leafValues></_>
    <_>
      <internalNodes>
        0 -1 133400 -8.6913127452135086e-03</internalNodes>
      <leafValues>
        -7.6392543315887451e-01 9.0431675314903259e-02</leafValues></_>
    <_>
      <internalNodes>
        0 -1 160868 9.5732475165277719e-04</internalNodes>
      <leafValues>
        5.6685883551836014e-02 -6.9767230749130249e-01</leafValues></_>
    <_>
      <internalNodes>
        0 -1 89807 -5.7307565584778786e-03</internalNodes>
      <leafValues>
        2.8441178798675537e-01 -1.8612714111804962e-01</leafValues></_>
    <_>
      <internalNodes>
        0 -1 162100 -1.2990695540793240e-04</internalNodes>
      <leafValues>
        -4.0860342979431152e-01 1.1582569032907486e-01</leafValues></_>
    <_>
      <internalNodes>
        0 -1 158596 1.6465010121464729e-03</internalNodes>
      <leafValues>
        -1.4970493316650391e-01 3.5987076163291931e-01</leafValues></_>
    <_>
      <internalNodes>
        0 -1 25448 -1.5547240036539733e-04</internalNodes>
      <leafValues>
        -2.3727998137474060e-01 2.4564978480339050e-01</leafValues></_>
    <_>
      <internalNodes>
        0 -1 132472 4.7241681022569537e-04</internalNodes>
      <leafValues>
        -2.6217415928840637e-01 1.9712592661380768e-01</leafValues></_>
    <_>
      <internalNodes>
        0 -1 131210 -1.3858657439413946e-05</internalNodes>
      <leafValues>
        1.4661180973052979e-01 -4.0819105505943298e-01</leafValues></_>
    <_>
      <internalNodes>
        0 -1 9526 -6.2887836247682571e-03</internalNodes>
      <leafValues>
        -7.2891074419021606e-01 6.4591892063617706e-02</leafValues></_>
    <_>
      <internalNodes>
        0 -1 142494 -1.7235111445188522e-03</internalNodes>
      <leafValues>
        -4.5258361101150513e-01 1.1024313420057297e-01</leafValues></_>
    <_>
      <internalNodes>
        0 -1 155142 -5.2396836690604687e-04</internalNodes>
      <leafValues>
        3.6191487312316895e-01 -1.5916314721107483e-01</leafValues></_>
    <_>
      <internalNodes>
        0 -1 2249 3.1746752560138702e-02</internalNodes>
      <leafValues>
        9.6731677651405334e-02 -6.1692923307418823e-01</leafValues></_></weakClassifiers></stage13>
</opencv_storage>
